{
  "encoder_weight": [
    [
      -0.042871958787586074,
      -0.6150425128980538,
      -0.8430247393763071,
      0.9962635390179331,
      -0.49175882505903346,
      -0.8936691565158885,
      0.40692142842740087,
      -1.240684746112203,
      -1.5840826167326654,
      -0.11080117390044142,
      0.4016902970451256,
      1.302474461663055,
      1.4480342551075631,
      -0.8377310641975269,
      0.6894993077368268,
      -1.028619495339743,
      0.3883311043685045,
      0.4699698224692809,
      -1.5151131500594635,
      1.2964508592058384,
      -0.9334464193537637,
      0.6408810911902232,
      -0.3827867868912113,
      -0.794850600096956,
      0.6197164070168277,
      -0.3288311962239049,
      -0.6661043300844869,
      0.4266680213740609,
      1.7260309908181295,
      0.1095233380188858,
      -0.07639646114365031,
      -1.3553872811660677,
      1.0245593939566933,
      0.5494507767675288,
      0.14753659555777923,
      -0.9709053889369582,
      1.7432602271997617,
      0.32521111044782863,
      0.009020974839991822,
      0.28239587855605097,
      -0.7692120754386823,
      -0.27563292022479685,
      -2.9784794279961115,
      1.579496180178345,
      -2.380954026732467,
      0.39527526713932104,
      2.31325918260475,
      -0.5839240619227797,
      1.1369266649199894,
      -1.4476909723518552,
      0.5711685606251007,
      1.6163864284210476,
      -2.7862045817314067,
      -0.6217474040192379,
      0.3975972254521246,
      0.48443205686918256,
      0.5016565127335048,
      -0.12146587263605278,
      2.0505024305641677,
      -1.4721576228139523,
      -0.30423087684521466,
      1.528386612131548,
      -0.2596606916745644,
      -0.3661234854236189,
      1.6418624080514135,
      -2.039828416872821,
      -0.5708190934486487,
      1.7529303492490396,
      2.3777089597727556,
      -1.3126216388775187,
      0.7273805043121916,
      0.6132895975550817,
      0.34248590340659923,
      0.28291727397898364,
      1.074277870883528,
      0.9534094202971113,
      -1.5948989335757011,
      0.059993610026082264,
      -0.2478177562531903,
      -0.9618811166045091,
      -0.5375832274437405,
      1.1807782045158333,
      -0.9402835791047006,
      -0.3032888806813597,
      -1.6626628914406638,
      -0.46478952824114383,
      0.7480711105044371,
      0.0038993397714381533,
      -1.5657536878381635,
      1.5877449552376304,
      -0.13833089027579273,
      0.6064694254849429,
      -0.32692882588377803,
      1.1799686998607508,
      -0.7148026514140993,
      -0.807629548981958,
      -0.6009544092692906,
      0.31168209284814924,
      -1.571397705142763,
      1.251931392754406,
      -0.05868261630643525,
      -0.3996255182023882,
      -0.711061521651063,
      -1.1139189333324413,
      -0.013510504305231607,
      -0.4517072428658835,
      0.6575070191912511,
      -0.015703526756225366,
      -0.6137731447818641,
      0.7707055747062023,
      -0.760214069093381,
      0.32234464672136387,
      2.2104189699129475,
      0.11217193590199662,
      -0.16423137537842106,
      -0.3824882673031598,
      1.8518374934674668,
      0.21748853451670586,
      -0.10626141764438497,
      -0.8982603502798732,
      1.005032255666227,
      -2.6251473042498095,
      1.0939447935336115,
      -0.30688872774893045,
      0.04701111744036949,
      0.8604554916357203,
      0.28262046574070204,
      1.5843087101668145
    ],
    [
      0.7760105546917193,
      0.32410901099990025,
      0.6864715091633328,
      -1.5121918341805165,
      1.4961708912390739,
      -0.6023084898218057,
      1.0946427954496418,
      1.8490618371676615,
      -0.7166061333319633,
      -1.8631050039525585,
      0.6657032087536927,
      0.27108772026760064,
      -1.286209289285235,
      -0.9931852584349357,
      1.0665917371125977,
      -1.082438699832137,
      0.4822784753554803,
      0.43809297972987266,
      -0.4653524630703434,
      0.8096364769053546,
      -1.0848250026931532,
      0.6272636268011833,
      -1.1104360372812336,
      0.14258425176481115,
      0.22240937556311519,
      1.8020577065869694,
      -0.1735041380419785,
      0.06587879986065338,
      -0.478146362161507,
      -1.556085519073124,
      1.014462621740758,
      -0.27417007573343866,
      -0.19738514339493848,
      0.014660565582686661,
      -1.5478706225047347,
      -0.5833950548750931,
      -1.827979716720886,
      -0.22853045517971274,
      -1.2450744677391994,
      0.2866797071407484,
      0.17159745731441375,
      -0.5543446110555234,
      0.7782822003514247,
      1.0321729923214067,
      -2.3072580387994623,
      -0.04717844105622724,
      0.6715298961063901,
      -2.3327365166672585,
      -0.10760725468326486,
      -2.4570669156201843,
      -1.0749225033623742,
      0.4951354501003721,
      -1.1929899564653552,
      -0.9492692330520206,
      -0.596537652108238,
      -2.1110112027352037,
      0.07757169826670694,
      -0.8607719892397717,
      0.2876101839999706,
      0.18848193864967483,
      -0.382250647851861,
      -0.5919275628281544,
      0.6460557863107058,
      -0.539669530879153,
      -0.23565539942934335,
      -2.328714648661486,
      -2.1369637951221416,
      0.2811161274323132,
      -1.4248613017484295,
      1.4698581026431383,
      0.9065041692589039,
      0.6508681522922988,
      0.40471547202538743,
      0.5551480432239345,
      -0.3805919288374336,
      -0.38141455840518773,
      1.0790106933297736,
      0.7595675502713992,
      -0.3472348762542538,
      -0.7605170779722886,
      0.175143760913032,
      -1.392719275060415,
      0.5166724329983492,
      -1.1664982541367306,
      -0.2914823342283459,
      0.45827955628759215,
      -1.7067901174648024,
      1.4896834247851412,
      -0.018369169833706525,
      0.30645574908131873,
      -0.39832701411921656,
      -0.6209580267443054,
      2.00627441098708,
      -1.013133290696761,
      0.10435694987971396,
      -0.07790950137123283,
      0.9622890428679983,
      -0.8775791753463263,
      -0.9955553161032965,
      -0.7740731898166197,
      0.6820095976644426,
      -0.7234985149541332,
      -1.5546358719956814,
      -1.013022118426018,
      0.2510467272172146,
      -0.3918520084618621,
      0.06231564093230677,
      0.3394730401569271,
      0.3808024399581661,
      -0.30525441725178715,
      0.32156947518379203,
      -1.443554903140434,
      0.3152941564708356,
      -1.0448437682250449,
      0.5284598413948415,
      -1.222590927359098,
      0.27064288408224435,
      1.8269458954220674,
      -0.5723386777220938,
      -1.6027518101062144,
      1.4088694305494958,
      1.5080029351464348,
      -0.8080507209668408,
      -0.19965922455199367,
      -0.03565682839293189,
      -0.15780986415982307,
      1.072798179851,
      -0.4963461871952992
    ],
    [
      -0.985611326253033,
      -0.6740932735674094,
      -1.1689580725160664,
      0.10196184355755504,
      -0.32120768153960233,
      -1.2779077326419026,
      0.7562847272636047,
      -0.3789237842968322,
      0.057908692161839116,
      0.2362271794783743,
      -0.6160581694687551,
      -2.2018775609950416,
      -0.855273570727935,
      -0.32215792765923157,
      -0.5488646302314864,
      -0.960662453509395,
      -1.1963873129572826,
      -0.5073197084936656,
      0.7347986580637832,
      -0.5403296181030264,
      0.6744990329402294,
      -0.1095533934366667,
      0.6876329674745121,
      0.6949236802375875,
      -1.1496137110510305,
      -0.5225374761358746,
      -1.0238264215589943,
      -0.5208210133168198,
      0.23691488413039352,
      0.5739238935040539,
      -1.2032028767900933,
      -0.5989974236231909,
      1.1888999133634768,
      1.1535878124732144,
      1.0171313819533456,
      1.147328283347791,
      0.49443535687941403,
      1.9184438006998707,
      -0.34447570367604424,
      0.30472277486035665,
      1.7148461348397903,
      0.09978210905505955,
      0.6504271435614446,
      -0.339364212741257,
      -1.0467825196619394,
      1.1069402367731833,
      -0.3349203641669739,
      -0.6944290253451929,
      1.1081221154951624,
      -0.18355490889273882,
      0.19403430514107164,
      0.4957439179873556,
      1.422354459948256,
      -2.5615942593406524,
      0.5708563409340576,
      0.3362493362011821,
      0.41971629529313303,
      0.05112453190556864,
      0.41074266569859436,
      1.285873663238244,
      -0.6324741402920316,
      0.23802213237815295,
      2.083403684833596,
      -1.2741580363420941,
      -0.8654643797740493,
      -0.7736499450262834,
      0.1738988529614146,
      0.32879923240715275,
      0.10471882367778115,
      0.6367296406694284,
      1.2843127307390272,
      -0.8118928629958015,
      0.34285524446237,
      -0.7609591835872395,
      -0.6356160926275968,
      -0.7293114246687223,
      0.4051882865355558,
      1.6403472591276664,
      0.4170221517391792,
      1.1509923088064207,
      -0.11407550566464848,
      0.15870695038585844,
      -0.7673496351066642,
      2.0039968376211212,
      -0.9076728189504041,
      0.7748216236236356,
      0.5900151493440028,
      -0.8135158148392302,
      -1.4488064008724806,
      -0.3519300687561313,
      0.5770388320226614,
      0.01748023344457303,
      0.34979700119854235,
      0.48795739275948413,
      -0.546643568336747,
      -1.869882201112568,
      0.010336332252786738,
      1.2117061307930532,
      -0.6637909254246955,
      -0.17044600797340345,
      1.0056194447190183,
      -2.615009635489973,
      0.8569876954847035,
      0.4312620633796807,
      -0.36709498739685575,
      0.23863295818349503,
      0.5505178063122756,
      0.9222355432964218,
      -0.3325467329977402,
      -0.8256305905135454,
      1.0381436206868961,
      0.151887389674086,
      1.0698158218688496,
      0.32117403674801914,
      -0.5536047182052214,
      0.21008167660056634,
      -0.8222727325468198,
      -1.3106103315734714,
      -0.3178680262721823,
      -0.3695571532352922,
      0.18189196052251455,
      0.2749870005361537,
      0.5095705272548721,
      -0.4012040547791728,
      -0.5310601380585913,
      -0.4276026697224156,
      -1.1751127770662235,
      0.14541722127658194
    ],
    [
      0.6615743482635073,
      -0.46314637254581603,
      0.3299057813685932,
      -0.6200009307360319,
      0.6155919694273723,
      1.0433943057793018,
      1.1929739885833262,
      1.9507585904830544,
      0.5052727085572474,
      -1.0224544162820892,
      0.3289053281475783,
      0.28675886552346763,
      -0.15482781472804844,
      -0.580780234240155,
      -0.01721335138871995,
      -1.6634245778330503,
      -0.4139189088472698,
      0.4130408017446435,
      -0.19507385795260723,
      0.6217153780744844,
      0.5388463288251067,
      1.320307307492893,
      0.6672338121047241,
      -0.5783717516286001,
      1.9530275916291742,
      0.08456050616951254,
      0.5849237108497476,
      -0.43707809768527484,
      -0.27461471028177487,
      -0.21848093317251233,
      0.6409247294360864,
      0.8555107875103909,
      0.7376458468546392,
      -0.6294025367180598,
      1.8146495955331479,
      -1.2424645719038632,
      0.6421746954124982,
      0.6412173010430068,
      0.22206694584288078,
      -0.2556053410075859,
      0.9215177459737277,
      0.3540835643114485,
      0.5595327793596839,
      0.35997470172368656,
      -2.4219832191486117,
      1.7435639316549694,
      -0.15353589288290315,
      0.3807813481986181,
      1.3115826388166034,
      0.1937253738032094,
      1.0516103162233272,
      -0.8367469362599058,
      -0.42448611414628273,
      1.3409574982069932,
      1.0850282759544345,
      1.7979675929006247,
      -1.625625151528269,
      -0.8680159495879514,
      -0.2309880852579011,
      0.08845603450804129,
      1.2699703143882333,
      0.6797640054358236,
      0.370412196005421,
      -0.3467375194911299,
      -1.2005518619227593,
      -2.095341497921831,
      0.2293970894190071,
      -0.5838117496210037,
      1.7180835315364023,
      -0.7891723811444885,
      0.03329765535611056,
      -1.2525284992710692,
      -1.3096940553240028,
      1.8512991372313423,
      -0.3227762815815025,
      1.2060275933996596,
      0.08007954895132133,
      -0.6524173167126588,
      0.16669182032272842,
      -0.1659156141634418,
      -0.20818960120954041,
      -1.230735173568689,
      -1.122684943096295,
      0.021392916712940864,
      -0.1607438654213293,
      -0.6514807121722617,
      -0.22100432459799485,
      -0.3047647115935876,
      1.3372194177804402,
      0.7611512951312754,
      0.5329391373244998,
      -0.035454088529257084,
      -0.5232400261433839,
      -0.4912991024479766,
      -1.3189874134452835,
      -1.1271593047585327,
      0.08263039460615738,
      0.8138120193983435,
      -0.8825122885130716,
      2.568733546571396,
      0.31627890372880757,
      -1.2916079876961186,
      1.3649849150517281,
      2.162367454084086,
      0.6746994060551232,
      -0.12920388320807918,
      -0.8092930355550327,
      -0.3002875692672307,
      2.235369744058586,
      -1.619138415888998,
      0.9552219888206263,
      -0.49766144753352864,
      0.9222188168259224,
      -0.5558667535289536,
      -0.4935364471883039,
      0.2026641731697709,
      -0.3079692272893454,
      0.5615209870377521,
      -0.7054406549996008,
      1.9928053270906414,
      -1.0875015657951226,
      0.22395355922420182,
      0.44866467592567355,
      -0.6127898134042153,
      -0.0718981537839584,
      0.6630828296002759,
      0.06611078701096175,
      -0.5026338076275546
    ],
    [
      -2.229937379897332,
      0.9093873555642832,
      1.1614598285841093,
      1.4963341445215323,
      -0.39768967295830554,
      -1.1812235931012978,
      0.0016454544730791438,
      -0.4225370523145705,
      -1.198435147202126,
      0.49169873323458657,
      0.5772075417208555,
      0.5153239048621322,
      -3.085910425527246,
      -0.9563564064031562,
      -3.0543654324803193,
      -0.5750900927403553,
      -0.935281144655057,
      0.5181276508015621,
      1.7538572411955606,
      0.2561111563653138,
      -0.6662721990860099,
      -1.135592676313169,
      -2.327864503160442,
      -0.5123548206086315,
      -1.9367530522782657,
      -1.5763161649991335,
      -0.22703476165270553,
      1.7388622788665187,
      1.010395659040141,
      -1.8526198141319221,
      0.4230399316972613,
      0.40461205347209894,
      0.44619044512902045,
      0.7389983288248934,
      -0.40361432149732823,
      0.6731300714218527,
      -0.8580864720660288,
      -0.08472341541483752,
      0.41909596833133816,
      0.32973644263825214,
      0.937671787903131,
      -0.630704879785734,
      -0.6035761011430103,
      1.8328536625798777,
      -0.48179691256792,
      0.6503281045151519,
      0.040244619007764014,
      0.19657684283244276,
      -0.1905327981620412,
      -0.34923914092096636,
      0.9435735138122565,
      0.4105334865959186,
      0.2869562612416342,
      -1.09686241400912,
      0.7391184624961835,
      -0.3302033784610611,
      0.2123202039131843,
      1.6629439593785291,
      1.6624360049691285,
      -0.028184203638622278,
      1.4809093743703956,
      1.201383200680785,
      -0.36086544601025233,
      0.2608427355787902,
      -1.258446545770921,
      -0.008793290777639556,
      -0.6170919708387568,
      0.2503453862077564,
      -1.3572410813172926,
      -0.9797598688884085,
      0.7264072379458902,
      0.4618906184656097,
      -1.0826717092261788,
      -1.2672448947503465,
      1.0113220954995026,
      -0.6157084728175318,
      0.01275198429124766,
      1.0655381128879922,
      -0.22947824870901895,
      -1.2742437057557394,
      -0.07122229240882123,
      -0.38642160458365604,
      0.11313313025340506,
      -0.8736982956180818,
      -0.6174416670826106,
      -0.5722459386714469,
      -1.3060370973503888,
      -0.5201125944237783,
      -2.2380255774642337,
      -1.0211415559916397,
      0.7338077889724162,
      -0.18700493402565363,
      1.91526318189949,
      1.266085697712395,
      1.0735351285600772,
      -0.11485717240464345,
      0.6651809257340923,
      -1.289833630276481,
      -1.583383100773586,
      1.5478038629891935,
      0.32401500558043816,
      -0.41641787783147655,
      0.16739154247106477,
      -0.46604330079522405,
      -1.6344384661114522,
      0.8240562204494671,
      -0.9570468454843335,
      -1.4970348797609392,
      -1.133043120341898,
      0.9747498054636912,
      -0.47192267522872566,
      -2.202822703817755,
      0.49431688674813024,
      -1.8340751060407168,
      0.8949101189642509,
      0.6451742546824296,
      0.426358461915674,
      -0.37422370250751746,
      -0.34875559491752345,
      -0.32404688203348425,
      -0.254282741869034,
      0.5599825293988363,
      -0.11934803678030201,
      0.35813906064422885,
      -0.6264993866862547,
      0.5242091781698602,
      0.9193113442291738,
      -1.1805315045691642
    ],
    [
      0.2423049886771063,
      -1.7970656392844566,
      -0.5352853223919253,
      -0.6043818117159421,
      -0.3013874030350436,
      0.34214454651703663,
      0.17864182544038681,
      -1.1022244076993024,
      -0.038419145996206126,
      0.5802253348056202,
      1.0593827788135337,
      0.9343739025698866,
      -0.44767624315879395,
      0.28767935104048536,
      0.6506929172572405,
      1.2119497028910773,
      -0.6179008571115122,
      -1.2394815423856087,
      -1.1155663384691474,
      0.1301333544725557,
      1.102011605483792,
      -0.6602562076139544,
      1.02945958130618,
      0.7763863721674773,
      0.44559725729743166,
      0.15211252088527577,
      -0.9408935078725651,
      0.32318489742391787,
      -0.4796132988561032,
      -0.30550537822828905,
      1.2767043317837874,
      1.4960121237838184,
      -0.6980479863943302,
      0.613949555038419,
      0.4208919922843039,
      -0.918363195223656,
      -0.20670617576386732,
      0.6833558392873714,
      0.8460920526675834,
      0.7450946095182123,
      0.02116734556710822,
      0.2723641175374418,
      0.08925935750903112,
      -1.438861083262717,
      0.7384100665665542,
      -0.5817738825274961,
      -0.1093390756147394,
      -0.33176815160490886,
      -1.2243817255112666,
      -0.24789835087551776,
      1.0899328174131833,
      -0.6861158823181812,
      0.35011861355325974,
      0.856426266019659,
      -0.15984412456040384,
      2.1832741675976495,
      -1.0433120440588168,
      -0.5981325540055485,
      -0.21431367659133632,
      -0.8729564520552259,
      0.3074579259208329,
      1.223939929997882,
      -0.7443533262924591,
      1.4708652662692054,
      0.6182408668066761,
      0.14707087343627342,
      1.1808310267110043,
      1.3712048289939611,
      -1.4557285642338218,
      0.8466954922286194,
      0.13069642473959367,
      0.7045775710249981,
      0.46072541832782066,
      0.8855335899145947,
      0.27831079517265556,
      0.23419572437220196,
      -0.23004217873647817,
      0.2418488136959929,
      -0.8634671172419732,
      -0.7068402935294991,
      -0.3432148388526782,
      0.9376303689864643,
      0.7310264674199716,
      1.6152847171615239,
      -0.254163194804988,
      -0.10402558838160719,
      -0.7495305999979602,
      0.15884812047055322,
      1.0922644155439376,
      -0.11518465869606545,
      -0.039132516916692665,
      0.5168464245315971,
      -0.17184022300397203,
      -0.10354587473326765,
      -1.1178253267735692,
      0.6837801270418331,
      -0.5263573097519229,
      -0.3255680206912977,
      -0.42028354614387525,
      -3.169698742840232,
      0.1499516634771878,
      -0.5802216822447044,
      -1.6700606826758397,
      -1.6962762694358098,
      0.505486679378702,
      1.1043450811409046,
      -0.31658887800447394,
      0.4431107751542103,
      0.6014968228886379,
      0.5199325578696523,
      2.6206560435741695,
      0.8647448790091428,
      -2.0377503771773484,
      1.4690617758363527,
      1.8073811342162125,
      -1.692676699426667,
      0.7986963878311069,
      -0.31873877689202057,
      -1.816868213033104,
      -0.4697099188336945,
      0.7795134720771183,
      0.5407373578506831,
      0.0421703741987031,
      0.18001821288580278,
      -1.0476345754559753,
      0.5555610280409332,
      2.6540813680932493,
      0.12226081429647863
    ],
    [
      0.9861384008224583,
      -1.0307204978189213,
      -0.5902580304230783,
      -0.3717958842247872,
      0.4132980300178838,
      -1.0512129771596943,
      0.8448763107170035,
      0.7048616549429634,
      -0.5859856815318761,
      -0.4843376844998263,
      -1.862353278848198,
      -0.6228509730930877,
      0.09779955728372049,
      0.5265544947311295,
      -0.46159555112685596,
      -0.342008119872423,
      -0.319287114172461,
      0.36472383745557935,
      -0.9350831884455548,
      -0.9771405692174755,
      -0.24922875518190585,
      -0.7299932107291563,
      -0.7493686912307077,
      0.7779147450603414,
      -1.4165340999958502,
      0.2786441122651764,
      -1.7759391230516146,
      -0.6450458227599828,
      -0.23696124468568497,
      2.0751544429413196,
      -1.8998561262378115,
      -1.1021515195047586,
      -0.04243964756364266,
      -0.3247029420076517,
      -0.466290051352988,
      1.0643031924926594,
      1.5080159774209736,
      -0.7211723899944128,
      -0.9206738504156166,
      -1.1442077758049183,
      -0.10850913486604599,
      -0.13992732024538745,
      1.1100207053923663,
      0.11728812076601189,
      -1.221396783860495,
      -0.9203055461563993,
      0.47017367063731014,
      -0.625852228891422,
      0.8381726248053131,
      -0.4448601434345696,
      -0.7235801225353462,
      -0.2268717072470994,
      -0.21047188011711093,
      0.46397444042160535,
      -1.4127768122796822,
      0.6256958457248156,
      -1.553678467145306,
      0.6716178499068669,
      -0.34543922798994353,
      0.4008334501357869,
      -1.2342144389750338,
      -0.41643373107139986,
      1.4914490825282223,
      0.6997482292578682,
      -0.6118613064841044,
      -0.6499430536949898,
      0.8092131043355856,
      -0.42665988980043557,
      -1.3182346604087298,
      -0.39600781883939234,
      -0.35051597330166717,
      0.5783945281467727,
      0.6566153017149324,
      -0.1939345457807142,
      0.690019012662967,
      0.6206196029945943,
      -0.4729692144583974,
      -1.8123671152121215,
      -1.7864841680021155,
      0.8012401207179738,
      0.3226702852239824,
      -1.1115536064166665,
      0.5590528487910297,
      0.6661094043647545,
      -0.5245856513113817,
      -0.5021478936435205,
      -0.5682798584413544,
      0.1011555214690571,
      0.8872305961404104,
      -0.18141408240714066,
      -0.8230432899824457,
      -0.4113286074573928,
      0.5298121368874651,
      1.7717462002991935,
      1.2813345894000379,
      1.5879607585788031,
      -2.309174079516041,
      -0.10781001899383208,
      -0.9300091896609525,
      0.8864890188407888,
      0.48311290466679596,
      0.6458876272985404,
      -0.5924880506897122,
      1.1243959024101418,
      2.287481895092691,
      0.7615936063352554,
      0.937832311997575,
      1.1302604940619603,
      -0.512286628760575,
      0.06518784983881507,
      1.3714233756173348,
      -0.9395770938311659,
      -1.0371906921810312,
      -1.0602791419059365,
      0.13763363256117805,
      0.571366569921091,
      0.7559424790001306,
      0.7604118653476567,
      0.4872770499327833,
      -0.06572910551560844,
      1.1082143215055857,
      0.606271128045607,
      0.02209900725977563,
      -2.444797882186739,
      1.353314400756284,
      -0.8369980971864255,
      0.03115092526958514,
      -0.017497213893586015
    ],
    [
      -0.3231062650959669,
      0.8255719481894668,
      1.0383893983828516,
      -0.6997245024596099,
      -1.3048295867951076,
      0.5075824838739907,
      -0.19508480271299788,
      -0.6878454948387809,
      1.041986302525126,
      -0.7161933954530845,
      0.9052195809510507,
      0.2512408335768259,
      -0.8268641662111869,
      0.4714483175137272,
      -1.603388010591514,
      -0.5004548600643158,
      -0.8526186694200901,
      1.0078729314172081,
      0.8161971052792331,
      0.3357122002631279,
      -0.47464542465114085,
      0.5632242122754869,
      1.3954978265557432,
      0.9480509105875016,
      -2.1130395802055957,
      0.4862943593599676,
      1.6526205867490402,
      1.605402552155183,
      -0.46735103755948587,
      -0.5380633028282101,
      -0.6579964051280286,
      -0.39548708447641057,
      1.1277925319698612,
      -0.46534208766688484,
      1.0086435144222956,
      -1.2692257742043056,
      0.2359911043464791,
      1.4025022388559039,
      -1.5050410989370477,
      1.2419514408620704,
      0.831769780329653,
      0.19646603731542606,
      0.3346563415531044,
      -0.6141802714936235,
      1.3173140871215339,
      -0.40541613123979825,
      3.777044751449277,
      -0.940336503331504,
      0.22412330097668345,
      -2.843871196581857,
      0.31755716467316036,
      0.032968140281452125,
      -0.5594530331189472,
      1.0466499352248346,
      -0.13401048436747728,
      0.9977267012875527,
      1.8200286048731722,
      -0.8431047136530634,
      -0.8189506890533401,
      2.0075634284796937,
      -0.022294271416307274,
      -1.149851046346129,
      0.7238836905942345,
      -0.9922403228437998,
      0.14347491152593303,
      -0.631159439357032,
      0.8988835874478928,
      -0.23214178764679233,
      -0.4012970850219377,
      1.1654518690946212,
      0.059623262353528175,
      -0.01632451053092543,
      0.603260034169287,
      0.8551256239134214,
      -0.26140167902705125,
      0.9510544928368042,
      -1.602889932030101,
      0.8529682289537456,
      -1.0264040021888317,
      -0.16439607731070835,
      0.9032043539730705,
      0.12697138500601646,
      0.5960052575698893,
      0.6354233374629461,
      0.16658852837302657,
      0.7509234858123892,
      0.15780884149805982,
      -1.52140125541182,
      -0.4489984870609031,
      -0.5480597883027891,
      -1.6450622311368652,
      -0.7413066177552645,
      -0.8544941341032832,
      0.57356230772482,
      -0.06330346160329219,
      -0.1184557228538062,
      0.09989692428176188,
      1.1298885406519505,
      0.5296504374855133,
      -0.22843586119446377,
      -0.8030652254670458,
      -0.7251195448686028,
      1.4899185519887757,
      0.3052054552823757,
      1.413424958626778,
      -0.2751497359271274,
      -1.5037478268862712,
      -1.2704189350347561,
      0.22314869051944045,
      -0.43563817391548015,
      0.44060935360834874,
      1.9148748066973607,
      0.18458704297466955,
      -1.456961094664173,
      -0.757346690611122,
      -0.511938928833967,
      -0.7981357745890727,
      0.2184649343443177,
      0.7198974218956128,
      0.313158990261251,
      0.2656454586155002,
      -0.5209488077066774,
      1.9625018264119358,
      0.8388610571424067,
      1.097129584394062,
      -0.6117087684416045,
      0.7831315854117875,
      0.779463828049649
    ],
    [
      0.12860142953182804,
      -0.7981173106810664,
      -1.1205561122740586,
      0.45257604874240315,
      0.34136103485396924,
      -1.3714158441590645,
      -0.963749398537074,
      -2.8187763855959687,
      -0.3977132392077913,
      -0.307499479205791,
      -0.9336233239816862,
      -1.0789799478076878,
      0.8177667267507034,
      0.18790968522895338,
      -0.6436390093671401,
      1.5312678674891282,
      0.9137151083821743,
      0.8414082180318475,
      2.254101771605275,
      -1.1487240094152729,
      -0.867760035990166,
      -0.7718155988973436,
      -0.06370205891544131,
      -1.633282265377431,
      0.6187232548707815,
      -0.7198175669403694,
      0.6830178657548653,
      -0.5117742349294531,
      -1.3327337834204416,
      -0.8663290121446631,
      -0.08281552782732884,
      0.3329906197219639,
      0.13591791230258835,
      1.8780147127227478,
      -0.4756406193394258,
      1.655824089644031,
      0.543763344360896,
      0.18850072060248454,
      -0.4607420161430235,
      -0.22276506325499443,
      0.9141913620589228,
      -0.22009111746203025,
      -0.17794546855791285,
      0.298433264943449,
      -0.13704499695230596,
      -0.12697189375414178,
      0.6008304079979004,
      -1.0551139973540935,
      0.16209171929760202,
      1.075873406951443,
      1.0629518772470619,
      1.1125528723806484,
      1.177528779908848,
      -1.2324134063337715,
      1.001483009594797,
      -1.0540014251899952,
      0.6038002051733576,
      0.40956243197109465,
      1.2663926254692608,
      0.4228787993345762,
      0.7054993777549323,
      0.9108637479914469,
      0.011496269871014105,
      0.3652454642289489,
      -0.3880590108973041,
      0.48694474315611075,
      0.15667808173766107,
      -0.21422259065647076,
      -1.4396097674686466,
      -0.9957018244037694,
      0.02346799522950548,
      0.3460474679802448,
      0.6585055193345101,
      0.027198054937786646,
      2.2053343603957654,
      1.289905419378345,
      0.1336750980698731,
      2.294084615777932,
      -0.818570105079274,
      -0.575402004304215,
      0.43799361008007404,
      -1.1080051603195271,
      0.020337121705933985,
      0.6489220389445767,
      0.026771055644127635,
      -0.6273388946718267,
      0.3121413056141153,
      1.0333692435710964,
      0.27079584587214606,
      0.020159817771374825,
      -0.5269881490231926,
      0.537191902598384,
      -1.5000643867161687,
      0.4301894695560815,
      1.7896911350339981,
      -2.2765487560404427,
      0.28986826659128845,
      -0.39424974382324945,
      -0.7922014378805357,
      -0.3577535651683526,
      0.15575059366080057,
      1.9122176065033216,
      1.4896752144628347,
      -2.6383276887190004,
      -0.044279582225053786,
      -0.7387531610832607,
      0.7409845529161149,
      -0.4644002010167774,
      0.7147115151545762,
      0.4756926548554141,
      0.31201422710763793,
      -1.4439746980615564,
      -1.810445533522814,
      -1.3651543917445315,
      -1.3107871586757496,
      -0.42256624020654876,
      1.8619695833816874,
      1.6095465045997668,
      -1.1041967350431823,
      -1.8361850123730674,
      -0.6039149961963011,
      -0.9265726312750334,
      0.41690352900665517,
      -0.5240854292172178,
      0.26237818679150604,
      1.0984233055182426,
      -0.7684625478205979,
      0.34139755603494015
    ],
    [
      0.04144509434072873,
      1.3034432426525153,
      0.8026139179370865,
      -0.0261130818912388,
      -0.236445683417532,
      0.4650652565733674,
      1.046271362514354,
      -0.08105856631038766,
      -1.289699212241285,
      -1.3105316498397936,
      -0.37516344756743947,
      0.41985919130959404,
      0.48018765544261394,
      -0.23478587866383305,
      -0.1831348460318151,
      -1.9591186729366683,
      -0.6936597150326236,
      -1.5041716630163937,
      0.9205230254358375,
      1.139033772734547,
      1.1677644824482534,
      -1.4970582507579266,
      2.168602553623364,
      -0.3172772926526077,
      1.9856146606780138,
      0.1848718658255273,
      1.2414381961956493,
      0.4577362092673401,
      1.6509819456552637,
      -0.27114870177782163,
      -1.0043832186464352,
      -0.15501179618858066,
      0.5893555107846539,
      -0.3550450378549712,
      0.884382117405108,
      -0.17786881343396582,
      0.9556110150085584,
      -0.5133344389394073,
      0.03200706976902479,
      -1.2037699061641758,
      0.14569263311107647,
      -0.4284775508579703,
      -1.283552996296248,
      0.5137901885041387,
      1.444879367628326,
      -0.63312837610918,
      0.8978633939117728,
      -0.1362742745622328,
      -1.3079246838399152,
      1.4750014601622705,
      -0.5834106307196402,
      -1.6612722900095656,
      -1.4852306112144424,
      -1.512058181734704,
      0.8974387900526977,
      1.4072757252381272,
      -1.7388778073615538,
      1.2712726471586133,
      0.4302312570932342,
      -0.3949504430286295,
      0.0100419571862592,
      0.6428844558790648,
      -0.6351459154743727,
      -0.07837910911227422,
      -0.326297560244669,
      -0.5275379810056284,
      -0.03093139256858237,
      -0.29143921023134534,
      -1.104001463382252,
      0.20363400308107707,
      -0.9701396002808351,
      1.2917373548807352,
      1.381174386336659,
      0.3623756779705396,
      0.9442413589808399,
      -0.21028630525283526,
      -2.2288451140255425,
      -0.6197486364052455,
      2.4201773053736706,
      2.3165753535583815,
      -2.1118805496324127,
      -1.1629661180735837,
      -0.9034968514629844,
      -1.745437278824358,
      1.294472962464974,
      -1.5066018026018426,
      1.2857149194260598,
      -0.8463362372009768,
      -0.25589848844343455,
      0.29033645415410353,
      0.05047299483540116,
      -0.5920275203950881,
      1.699341368372013,
      -0.8753958630666235,
      -0.7485954068860025,
      -0.4629359887058373,
      -1.205585868368308,
      -1.07172873490923,
      0.8752395578051239,
      0.15056504290879003,
      -1.349219191883316,
      1.1321556990761854,
      0.30135810635122284,
      -1.273368888610254,
      0.19284608346048115,
      0.6955435952397905,
      -0.4710155949803943,
      0.6980873363167028,
      0.3830593544942881,
      0.11211295253755113,
      -0.906320502147062,
      0.20708385883269775,
      0.5823811027586259,
      0.1667650862397615,
      0.27396474628863215,
      0.9493487429685862,
      0.27859897325230276,
      -1.413617115266512,
      -0.6071969893329064,
      -1.082380108525939,
      1.1280805011800166,
      -1.1104131983653562,
      0.1858913830013041,
      -1.8089417157199787,
      -0.397880535492689,
      -0.2561903963251549,
      -0.7476076859635088,
      0.7582248246594375
    ],
    [
      0.2955503484168441,
      0.5452194113437207,
      -2.0091148366095477,
      -0.5343566507281499,
      0.9783258918999039,
      -1.1652384559417723,
      -2.876371184337597,
      0.38752806762063585,
      -1.4175900319459447,
      1.2216937114862991,
      0.45222397909265494,
      -0.4278289410119557,
      -0.26236979608157335,
      0.5785449638851284,
      -0.9567192330165503,
      0.2980662182529776,
      -1.693265355281156,
      1.3755018826543222,
      0.9265514045524011,
      -0.8571366482935959,
      0.6963835580008455,
      -0.23631859692738755,
      -1.0167653352395063,
      0.6325619750552923,
      1.5109675228338648,
      1.1095978956451111,
      0.7741821655490961,
      1.7001978690393817,
      0.8945608722695656,
      -0.17995826723121414,
      1.46649805113375,
      -0.12910045229792239,
      -0.464753324528845,
      -0.493744110800713,
      -0.01560303011957168,
      -0.2329953555392284,
      -0.5567869190281349,
      1.4003764245842198,
      1.5276835986252928,
      -0.22450016834320455,
      -0.8525320189522584,
      1.8938658053934445,
      1.314741105592126,
      1.6698340242075207,
      -0.42245721545343673,
      -2.4640352572122466,
      -1.4730103437465503,
      0.14627214089686177,
      -1.855781006405911,
      -0.2595020612387569,
      -1.090539958987839,
      0.9327164920959695,
      -0.07811745458004715,
      1.3698491953801235,
      -0.540624428862047,
      -0.883696766635483,
      0.24849947111794618,
      -0.9118815768782298,
      -1.5346212793283156,
      -0.6479790649984625,
      0.8021152412290251,
      -0.46162146236978896,
      1.2106022332527935,
      0.7127602516952992,
      0.015086091536464473,
      -0.11292530421361266,
      -0.8759348976523456,
      -1.3687084380118462,
      0.06949684319801497,
      1.6026615676675324,
      -0.702760305215,
      0.913500715283439,
      -0.2775655815341276,
      -0.39253518489674344,
      0.6483764017503991,
      -0.29788880765913817,
      -0.9475338972624106,
      -0.6551696786021668,
      -0.6130014235028957,
      0.6569574643743374,
      1.231647792910392,
      -0.3219250615011198,
      -0.2552707521758035,
      0.33287009376569726,
      -0.16542726951528997,
      -0.5779755338665987,
      -2.0385836051162576,
      0.6589271266907482,
      -1.2926370786005215,
      0.323280212887124,
      -0.5950653720500546,
      0.08849495738756502,
      0.47351489848812234,
      -1.0469049946476825,
      1.0360350184948217,
      -0.9993166523244746,
      0.8044482244550062,
      -0.2561655151456823,
      -0.7543218798660681,
      0.19474235652989016,
      -0.30001103522399236,
      1.3126754133374527,
      -0.7024862474966349,
      -0.12863233376204927,
      0.7988148696344265,
      -0.31741576449090414,
      1.3787135687550929,
      -0.43205722571574023,
      -1.5262099138209535,
      -0.1187657734356724,
      1.0670513460561715,
      -0.651606108160626,
      0.2985658088858425,
      -0.3288987665000408,
      2.3412482941137385,
      -0.15442366505992833,
      1.1236597236409254,
      0.020736492230458765,
      0.08560027632565034,
      0.9147881441107655,
      -0.7327537659440836,
      0.19149575653433748,
      0.7561888181342513,
      0.10143467610422552,
      0.9987728779841061,
      -0.11663976481778243,
      0.9700754320657554,
      -1.1690734256004676
    ],
    [
      0.18659801613887814,
      -0.8823634915321135,
      -1.8897412224612924,
      -0.8132767784449828,
      1.9889846581520096,
      1.1907880880757475,
      0.48729526979610754,
      -0.03380528400980567,
      -0.6062031509662968,
      -1.9914166460401361,
      -1.2745616601924836,
      0.2649282163893491,
      -0.5662053100142346,
      -1.8545881923813934,
      0.12706803965857885,
      -0.5695038209537459,
      -0.8413066749443782,
      2.2130271989964796,
      -0.12035672776374891,
      -1.0262519386380613,
      0.08182026891777479,
      -1.465344300031536,
      -0.40276306981741417,
      0.48927579495731127,
      0.3250203968013588,
      1.1494253451710514,
      0.7506968141362502,
      -0.4466655102629245,
      -0.0662144855321474,
      1.5292870315428078,
      -1.268923561533117,
      0.40284714279324024,
      -0.538689050751131,
      2.634349830372866,
      0.18388971267744375,
      0.8583279484280154,
      -1.6803346639948873,
      -0.4861992325240553,
      0.4312321038171883,
      0.5718613112224779,
      1.581626966715612,
      -1.2945155127816834,
      -0.6180098188404776,
      1.0384994527765106,
      -0.7977413123036036,
      -0.9645947076546877,
      0.25160231170045516,
      1.6722272475410997,
      0.7870768835072052,
      -0.7922584013572312,
      -0.7580305722302029,
      1.355894136364713,
      0.8271360537498263,
      0.01113609079865924,
      -1.3866615735372425,
      1.887706938671739,
      -0.7037100629017546,
      0.20737710237156898,
      0.05081704347578659,
      -0.5493713417106001,
      0.33942862985057976,
      -0.48540959527774374,
      -0.07398605297665505,
      -1.4204989150484129,
      -0.03151490998685632,
      1.5726118459736418,
      1.0371658999398943,
      -0.42502396706135237,
      0.6391170243484371,
      -1.3923178581048397,
      1.4873421859912737,
      0.9664107480392968,
      1.4774731192457837,
      -0.39867691016018836,
      -0.5962694382271038,
      -0.5852961199750615,
      -1.9345759124856847,
      0.7234046713273169,
      -1.2193821831498288,
      -1.088960999622292,
      -0.06507606788105937,
      2.0468859218475797,
      -1.1528644773042367,
      1.552598431903332,
      1.8601093767883583,
      -0.07651014067196452,
      1.507938459045424,
      1.1034386528921678,
      0.7628939302755248,
      -0.4283663443030042,
      -0.5414161129716936,
      2.3688944522352253,
      0.09700089282029675,
      -0.3905980971354896,
      1.7883211835583714,
      -0.2736847221507124,
      -1.4283687177872662,
      1.4904685494107495,
      -0.21178211441917824,
      0.17993690036837964,
      -1.5528645921365534,
      1.8559177167364609,
      1.3260304328559636,
      1.0354330857686982,
      0.34583343230307123,
      -0.32057412353693054,
      0.9322644794434527,
      -0.5185335416789695,
      0.5692961500726631,
      -1.9075590222316443,
      -0.7398774842501394,
      0.9701264700952696,
      0.6350692055920238,
      -1.6019857610803385,
      -0.2050075183166602,
      -0.9568569517420956,
      0.7750209747168592,
      -0.5369937985122624,
      0.21546905006842693,
      1.2246917908824202,
      -0.4578843799378442,
      0.7500952312478188,
      -0.6034881877230112,
      0.8504976298764743,
      -1.8568849550172621,
      0.9329221786063452,
      1.0872706467677689,
      -0.3845468409311936
    ],
    [
      0.7096597135353533,
      1.0348037866806652,
      -0.3365931268691819,
      1.131423626363551,
      -0.9154657138661197,
      0.223082171516323,
      -0.3024425892753887,
      0.637065308916839,
      -0.8771166907524081,
      0.6412603543214119,
      -1.2544323580979249,
      0.799445687227784,
      0.9330191742672784,
      -0.6196767725895267,
      0.565778254669055,
      1.531645451861744,
      1.9470427712810405,
      -0.02747966907882832,
      1.0241872440061561,
      1.0185010905332892,
      -2.064390291258889,
      1.07378990927252,
      0.09252039422174126,
      -0.09511099170705471,
      -1.8499359935723079,
      -0.4411078995846158,
      -0.3870250331390862,
      2.2142480831541693,
      0.009032702754839758,
      0.30438177066947125,
      0.1915252479367016,
      -0.8628685943258826,
      0.8840702445997273,
      -0.09646708388956862,
      -1.6475661103842838,
      1.7386889447387082,
      -0.23785747391625892,
      -1.4625203044568644,
      0.9639647101781373,
      0.8343072974111462,
      1.3958906253101342,
      0.8110196073925611,
      -0.5625435275477422,
      -0.0247016323760065,
      2.516083253366383,
      -0.3916435862800889,
      0.07256157834590499,
      -0.4019938302967583,
      0.07454322515388864,
      -1.146948844656817,
      0.03887879760759994,
      -1.2120275408477958,
      -0.984768894727062,
      -0.9620657260345884,
      0.09585667172871166,
      1.5436359111775764,
      0.4500776576848021,
      0.3498875020440262,
      0.5354343494517061,
      0.812415220950722,
      -0.5366862228747195,
      0.12757857891844657,
      -0.8196760455897024,
      0.15619215606949374,
      -0.16206623175381035,
      1.0436523605938395,
      1.2773041261663538,
      0.519717559361041,
      0.4417039526506638,
      0.8232816564012597,
      0.23986067607674996,
      -1.2743580628679425,
      1.071986857674372,
      -0.26614928457755915,
      -1.0940808089887848,
      0.7048276003840962,
      1.3704904753358618,
      -1.616084542139227,
      0.549207070903393,
      -0.42612229175207605,
      1.4445773585367891,
      -2.0917841538780655,
      -2.212270526053668,
      -0.9328019781471544,
      -2.783579771120084,
      -0.5351628910429487,
      -0.7275657027840065,
      0.33393358959037606,
      -0.19345872033063033,
      0.883433977004521,
      -0.17988650531727832,
      0.2524214007568535,
      -0.4648160607699853,
      -0.8666393501791007,
      0.010130772883806972,
      -0.05962247529269391,
      0.04996456702443743,
      0.2893597083502285,
      -0.21139886892850304,
      -0.9811620986364574,
      2.7236016663349134,
      0.019897013172754,
      0.4572076051038985,
      -0.48001923457055146,
      -0.7314336432778658,
      0.322119716319581,
      0.019406094247500873,
      -0.2653990233132778,
      -0.46727396180739933,
      -0.04360341237943668,
      -0.9582536936454572,
      -0.25222718534269406,
      -1.6236809074433656,
      -0.8165841131155703,
      -0.3160837253746292,
      0.21724919309438556,
      0.6669220797663885,
      0.6508130109816423,
      0.7146886368937624,
      -0.3029367289479584,
      -1.6850354772004186,
      -0.8584369965591462,
      -1.9728453754612576,
      0.3472336280048646,
      2.4120689490675638,
      -1.4219084400087874,
      -0.0465850227557499,
      -0.030914444383260426
    ],
    [
      -0.980083172440188,
      -0.8078667554453253,
      0.6305468154087409,
      -0.9504919726359257,
      -1.8088419199393377,
      -0.5624406295169153,
      -0.7529036218294383,
      -0.5807792330931235,
      -0.13659227462751047,
      -0.6230258686132992,
      2.7925409583639267,
      1.0539691463792997,
      -1.0130586675137052,
      -0.995605376788682,
      0.35232024454037325,
      -1.5825238820106555,
      -0.30603631693118094,
      0.1615062602023755,
      -0.9512435140575449,
      0.8266320113653088,
      -0.04251105414797013,
      -0.05452358919167783,
      0.2998981578043516,
      -1.98782071979107,
      0.7521369814164428,
      1.0534649457805614,
      0.712468206957656,
      -0.10700417155592358,
      -1.5879840214068108,
      1.3728559143902677,
      0.604152944914418,
      -0.775883679448049,
      0.7265369521437658,
      -0.7288297854920822,
      0.040478319086808816,
      -1.2877745858344514,
      1.2756055997935023,
      -0.2779220827896258,
      -0.511872166744075,
      0.9101103732284672,
      0.418348735630027,
      -0.7012074860434123,
      -0.5418203959731798,
      -1.7881454386898141,
      1.8536097723443519,
      -1.4575664216179536,
      -0.23057192508545682,
      0.5594067714370652,
      0.2980127571067671,
      0.1293747248170401,
      0.5564000854786608,
      0.7700420459124476,
      0.4324315196544257,
      -1.1725413817035388,
      1.6686530224992993,
      0.14654531673994733,
      -1.3821316634781107,
      -2.0262330385173373,
      1.3122576885496833,
      0.3214343883492682,
      -0.8850463733002568,
      1.671766845416986,
      1.2435253162293773,
      -0.6392117145754971,
      -0.7796563341681515,
      0.18348945807171185,
      0.7386761407773619,
      1.39141805419627,
      -0.7598452345465487,
      -0.13224307314540168,
      0.13506057642978728,
      -0.887061680148965,
      -2.4063804120777337,
      -0.17828823919969597,
      -0.4304335374129286,
      0.7189934211596639,
      -0.9640940845498165,
      0.21096458225591297,
      -0.6937689296967949,
      -0.32636519846884726,
      -0.6398670025827263,
      0.19218267733638714,
      -0.513167010299728,
      -1.4221924216699968,
      -1.331254002053724,
      1.8059880797953527,
      -0.43173131331422454,
      2.42502180303405,
      1.815597572609651,
      -0.7673336177029745,
      -0.4901029950217807,
      -0.18362399659669743,
      0.9346092830145887,
      0.9195369857126985,
      2.1124033717271065,
      -0.7021678277391612,
      0.7276408867069049,
      0.910647647966965,
      -1.1433250123402967,
      -1.183387269236652,
      -1.0916792345698432,
      0.7777746488195493,
      0.9214241140980796,
      -0.20088363919201138,
      0.3164527325787293,
      -0.8441126368506985,
      0.3019847517788019,
      0.8896553816612375,
      0.8388184723657304,
      0.2503378847977288,
      0.07885841391258396,
      -1.5082438299800474,
      -1.0189830424521396,
      -0.6897407218113948,
      -0.5708052611595503,
      -0.8853686903503093,
      0.07497842395232544,
      -1.3867356183650537,
      -2.0954238151301476,
      -0.5943962175565639,
      -0.20712526353203448,
      1.943481515165761,
      -1.2925707217242948,
      -0.39280434478606524,
      -0.42656232884009393,
      0.615300707425473,
      1.4798257908452397,
      2.2582754552616557
    ],
    [
      -0.22292447113280864,
      -0.16686040082963416,
      -0.17239437124212015,
      -0.23045733416976935,
      -0.452960696150198,
      0.8070980072596226,
      0.11749995508748698,
      -0.37235446484569423,
      0.1645554978069388,
      0.5970022239851623,
      -0.6666993103840655,
      -0.24318190668010464,
      0.39646475662543074,
      -0.7494133683312919,
      0.879921445990514,
      -1.0153689080491788,
      1.1056093858086355,
      0.8934869382861216,
      0.17533678842347358,
      -1.816729292497826,
      0.4464685005623218,
      0.6309813708457225,
      1.1086083558836854,
      1.5667533876926125,
      -0.10768878972037196,
      -0.3020300588609736,
      0.2473844855339237,
      -0.027617971164128716,
      0.9958822563745874,
      -0.9099831785527553,
      -0.08010725321205357,
      -0.18954272314566367,
      0.49211489237627115,
      0.06797768488729446,
      0.012383286274099608,
      -0.0798933895738504,
      -0.2422173514729129,
      -0.08667964381972759,
      0.425398347829142,
      0.13137236982505182,
      -0.2314100082783795,
      1.4633543866077618,
      -0.45264876675713334,
      0.25832008974370024,
      0.8143837406639022,
      -0.15241113165384296,
      -0.37099465286946387,
      0.6587726245311653,
      -2.284925424990255,
      0.44329009877956327,
      -0.13904648252293125,
      -1.431229375728805,
      -2.2197726200061023,
      -1.9691784591694128,
      -0.7875855593957323,
      0.00020006055111776886,
      1.0229147833450287,
      -0.9002703344828121,
      -1.4551737840752008,
      -0.06273874551229552,
      -0.6328331965207111,
      -0.5198425255567853,
      -0.5098766865574056,
      -1.6154929582808326,
      -0.3773463135250582,
      0.7129018883620917,
      -0.6700172048175258,
      -1.0895793640203661,
      -0.8254716782029317,
      -1.0737189688132323,
      -0.4483416738768718,
      0.8758123100517451,
      0.011615684690278353,
      1.5766061869658614,
      -0.8696584994189536,
      0.4419962546215725,
      1.2529782036580288,
      -0.06793262246232362,
      -0.3060896572904583,
      0.06386428708890074,
      1.541217974795471,
      -0.636340491998907,
      -0.7269246985049955,
      0.27845241454498304,
      -0.45033661258216484,
      0.27119747232460534,
      0.8230876392629862,
      0.20813541876211772,
      -1.1488515613385815,
      -0.01225244905592141,
      1.4254655305965998,
      1.1975190630883188,
      -1.5787513302882634,
      1.1813133236024502,
      -0.8940944657280956,
      -1.085269855588713,
      0.10838430052270023,
      -0.6976254149393927,
      -1.0406353999795916,
      -1.0617678755638984,
      0.27723168716796487,
      0.41328671254127225,
      0.6606725962441045,
      1.110982708231107,
      -0.9874329171862105,
      -1.9609337951720835,
      1.853378528351457,
      -0.7165947092233556,
      1.5583142464630326,
      0.1312469537333914,
      2.001606986879161,
      -1.047299940108285,
      0.3424235882707749,
      -0.8585373985473777,
      0.6351500250961403,
      -0.1379465617279882,
      0.8202239324359196,
      0.28427382931814654,
      0.5052671204836869,
      -1.0068438893249214,
      -0.07506168787299254,
      -0.6585722293362742,
      -0.3837252681851013,
      0.5118425637891609,
      -0.2796790901357194,
      0.001489806629000119,
      0.8511722587775109,
      -0.4554541378690829
    ],
    [
      0.7375870920005252,
      0.21589166955500716,
      0.6942662691239081,
      -0.8440691894477329,
      1.5641662531019798,
      -1.0234094121240538,
      0.31586582400156166,
      1.1353117859630104,
      -0.6585974897178994,
      -0.34449132763950663,
      -2.121682473054125,
      0.24522434507197408,
      -0.736493494201666,
      2.866012627968082,
      -0.8224098233318906,
      0.7779207841859543,
      -0.8162624676867589,
      3.3352226010891006,
      -0.40479608177941284,
      -0.639900210314448,
      0.29321813641799543,
      -0.5001833204125824,
      0.688506956843053,
      -1.1132979464258235,
      -0.2984894724460235,
      -0.8689912916415495,
      1.0714394388042099,
      0.5346464255808346,
      0.6901395376180071,
      0.688095644669788,
      -0.9374617396667884,
      -1.235946573939541,
      -1.2132317527848877,
      -0.1307303190196546,
      -0.6240386431719912,
      1.0263401313076814,
      1.443961506802244,
      -0.8624214350691801,
      -0.1981245053491477,
      0.6660569004314804,
      0.3265797223232376,
      0.7005291008221797,
      0.4896540713644454,
      -1.202863365575228,
      -0.5099943017535513,
      0.4563187707872683,
      0.3134649508650231,
      -0.8710017034979819,
      2.053932553593908,
      1.2652467334807735,
      -0.5337332344766286,
      0.9194546506236272,
      -0.17508567970209896,
      -0.27717655567969446,
      1.2391487023990504,
      -0.07720182494639169,
      -0.26236751287984356,
      -0.17121165892206908,
      0.013174639320991041,
      -0.035452438509475166,
      -0.7393181492263191,
      0.10083897956226097,
      1.7412179523231563,
      0.7855142457582,
      0.031747251250231555,
      0.6253145825245479,
      0.09828023628613614,
      -0.6822512313585277,
      0.15471190195540724,
      -0.6075307982315823,
      0.5156579437311835,
      0.21105221427869278,
      0.5488978731966433,
      -1.0740736340998775,
      0.09974482436070514,
      0.4618266471588144,
      -0.11651888209152364,
      0.7748179545281925,
      -1.707745470310442,
      -0.053861704934988756,
      1.4001250958892606,
      1.0566462563002292,
      -0.7257221132899414,
      -1.3205266060285683,
      0.49123823202585604,
      0.6901411137598737,
      -0.3151893207739722,
      2.0128686562886857,
      0.6418559605667151,
      0.7492028226979749,
      -2.100519265527528,
      0.806363521032299,
      -1.1841502861460758,
      0.07970863060443698,
      -0.6198137599490801,
      -1.650509502452948,
      0.4883505721959744,
      0.32441011037299244,
      0.05552191497124585,
      -0.13066790596892872,
      1.5741999192378375,
      0.8915951844417752,
      0.810472387581499,
      2.1850057849685385,
      -0.11995475452212859,
      -0.5063154245955634,
      -0.25203477355444986,
      -0.40713351593054503,
      0.2845523362708224,
      0.1371696364276195,
      -0.67683487894498,
      -0.07236584450608045,
      -0.6069455046825957,
      0.5280145317001332,
      -0.1860554792351262,
      -2.275814471086501,
      0.6685614324149668,
      -0.028057062917011096,
      0.22147193710961288,
      -0.7400532098345457,
      1.0549390884680412,
      1.2980624944008565,
      -0.8723983496742469,
      -1.3019525549349538,
      1.2414313045565235,
      -0.7631143846203825,
      -0.618749755189816,
      -0.3800688199590742
    ],
    [
      -1.6276665840430604,
      1.2172909441407365,
      0.5310092089845865,
      1.9112867292288491,
      -0.21322933263198127,
      1.2274648091555962,
      -0.2353080118833628,
      -0.08875497352692427,
      -0.6469842959566438,
      -1.094680189196621,
      0.12737241374512506,
      1.325530331244245,
      -0.1366856038625925,
      0.5337972189494288,
      -0.9525034415799891,
      0.07020682780314545,
      0.41652980460774897,
      -1.62118928374884,
      0.7319401185377227,
      0.27316396472930093,
      0.257156997545835,
      -0.4825433198882808,
      -0.06003573673818839,
      -2.1765037460131222,
      -0.23055600369274284,
      -0.4721083377949744,
      0.2795445688228319,
      0.019784663111138627,
      0.6148982922435456,
      0.36011162883884973,
      0.8100314254011244,
      0.4812331507718122,
      1.5465222823625568,
      0.010802173813165393,
      0.9051750251498039,
      -0.1316907612621428,
      0.3652121655042796,
      -0.981180057435058,
      -0.8949477134922199,
      0.6225277462766141,
      -0.6798079292658366,
      1.3182350085569445,
      1.9947024926704506,
      -0.07424442073326107,
      1.072336770221518,
      0.02093600636129859,
      0.4325220225192966,
      1.6065515706635263,
      0.16740126043475279,
      2.523353659356014,
      -1.1295552052110527,
      -1.3131630200407922,
      -0.3864932896955884,
      -1.1786177270913256,
      1.755577936222452,
      -0.23785403548867298,
      0.6968572832577791,
      -0.9477154075500468,
      -0.775321582912602,
      1.3009753149314818,
      -1.4198198753235758,
      0.9767195508386759,
      0.2477868385536328,
      0.719195191475683,
      0.02658556408378254,
      -0.7074254065895474,
      0.14059114582903015,
      -0.2979703433221569,
      0.2965597594838322,
      -1.0092733758282189,
      -1.2008855499009972,
      -0.429124200708681,
      -1.3492860935490338,
      -0.4657566095587446,
      0.6521261882170424,
      0.6690978708267858,
      1.0638632094113232,
      -1.5271775710846607,
      -0.49661149758804685,
      0.04110604106595214,
      1.1927657147286093,
      -0.5055823574150404,
      1.1297450259437403,
      -0.7695220260353606,
      -0.5885976391402993,
      -1.3256487648363775,
      0.6891940717401519,
      -0.4967623465156746,
      -0.11807122708425519,
      1.542675041022193,
      -0.5618963681141631,
      -2.10959553706223,
      -1.3444336021997816,
      0.7877620838743177,
      0.559513835039336,
      -0.6373024496178415,
      0.49846398496950345,
      -0.7096725979681541,
      0.5562442854886157,
      -0.9025841734395763,
      -0.2949690017943163,
      1.344081334860632,
      -0.6637211711433166,
      -1.068725575763944,
      -0.3519377841580172,
      -0.26966357405943847,
      -1.4259877689961464,
      -1.246452383696775,
      -0.3282753065371884,
      -1.1897044890147148,
      -0.47047553496108646,
      -1.069286686360786,
      -0.18880809793296674,
      1.0663697170601298,
      -0.054040091237131486,
      -0.7964285950818437,
      -0.17274121699993142,
      -1.101532632110712,
      -0.4415940659694385,
      -0.3535139044669964,
      -2.4200749527762717,
      -1.380635500002991,
      -0.18082298868429592,
      0.14313357458124573,
      1.992407237999156,
      0.9750750317712783,
      -0.6013723858382403,
      -1.3980671502191375
    ],
    [
      0.16344592644513786,
      0.13976286820582234,
      0.6420015817793934,
      -0.693797489689173,
      -2.297005311003814,
      -1.2886627301212927,
      0.6673162796555228,
      -0.27114203257001607,
      0.7702478440764949,
      -0.6662990489434588,
      0.8217036265991058,
      0.7849948626630482,
      -0.4651739393356202,
      -0.4889316806335944,
      -0.5135085830721887,
      -0.0889433705735746,
      -0.8542726214845755,
      2.2977284124293735,
      0.3508468736532137,
      -0.5581288805971208,
      0.0846206345511695,
      -0.1265794791093553,
      0.47484936060767147,
      0.48144729881867765,
      -0.7104187026517271,
      0.14181393270031994,
      -0.3744691297125661,
      -0.9938468007385463,
      0.8056241515211618,
      -0.39853439445589567,
      -0.6641279193858758,
      -0.10996414654744162,
      -0.20873825677570976,
      0.9915669684128653,
      0.32229414580919064,
      1.0676392344182193,
      0.23986211730904028,
      0.3121709716220064,
      -0.9043837317664045,
      0.15380071719357333,
      -0.755074746162807,
      -0.7180974405505082,
      1.0414740022628641,
      -0.8610026401589772,
      -0.14402210754434885,
      -0.22334105743811786,
      -0.46673911256113265,
      0.5354521338197381,
      -0.755374510205181,
      -1.0184985990360638,
      0.32628720000307865,
      -0.6932341004448784,
      2.344137082291543,
      -0.1943539705502959,
      -0.26994488283638784,
      0.9547199137434467,
      -2.400041023559301,
      -3.109867262728761,
      0.1864560604918563,
      -0.34875405520973707,
      0.3913025257790616,
      0.0907537181468931,
      0.14171849512453594,
      0.9364044179488004,
      -0.0676185005962434,
      -0.6667421423246425,
      0.42395242633722685,
      0.6166505442483514,
      1.903206460245783,
      -1.0831175453658821,
      0.42710150703809513,
      1.5512626063205046,
      -0.3450964430608518,
      0.9270488905475546,
      0.9130642199560332,
      -0.21393611642814658,
      -0.9797799553481571,
      -0.27777239095493983,
      -0.25794358951924473,
      1.7585664976035023,
      -0.4750255608789438,
      0.08391896236839114,
      0.4437198516632077,
      0.24974098126379737,
      -1.0790008799257227,
      0.38943326353277014,
      0.9707772948910859,
      0.9665279130092016,
      -0.4771801752166846,
      2.094465980545259,
      1.4620105638773604,
      -0.29991669780074987,
      0.76290598725628,
      2.171596146567259,
      1.0237769017601601,
      0.00044632135902083196,
      -0.3589961266681811,
      0.5296699550513182,
      1.5320710161659175,
      -0.8450734221431871,
      0.4712221151344975,
      0.8617322109076507,
      -0.17370561027775142,
      -1.6548254537337284,
      0.5867299822039502,
      -0.313476852223391,
      0.4049535854939437,
      -0.19130045978545554,
      -0.6540767044422776,
      -1.2097752534454407,
      1.3672809309533664,
      0.9566773761563131,
      -0.5083554843514557,
      -0.22033663043928778,
      1.1184809344653146,
      1.4399010157305165,
      -0.09302274323005433,
      -0.1619711007408452,
      -0.6748545560158412,
      1.2154854273435398,
      0.07606367280858042,
      0.9150661992225102,
      -0.5191018814226727,
      0.20752158087104863,
      -0.1650604777976612,
      2.19520733518072,
      -1.1946244892033895,
      0.17291273685821407
    ],
    [
      0.13945163501801094,
      -1.0921033064712322,
      -1.3350602073902438,
      1.6222773749667394,
      -0.1698297011373435,
      -0.16958365696291638,
      -0.7233052545598413,
      -0.8292380907642559,
      0.12616835199845194,
      0.5073722356859104,
      -0.9869420571595635,
      -0.029442091685214083,
      0.35106657464005675,
      -0.23795791436529834,
      -0.2227754396813043,
      -1.3961127443848405,
      -1.166896993065437,
      -0.7737866183386599,
      1.128775008994892,
      0.8623639430295483,
      0.6940675410574119,
      0.2501542540035249,
      1.1780558007715645,
      0.41455505093100864,
      0.0027023385696605465,
      1.3047500762600273,
      -1.9654834067717621,
      -0.3473638645459252,
      -1.146495037127925,
      -1.2881289018759756,
      -1.6483431174710363,
      -0.604281129589008,
      0.720967547702159,
      -0.2814510603226452,
      -0.09293460902907012,
      0.52334076055114,
      1.4306887826363102,
      -0.5265303091340526,
      0.6535631342161246,
      -0.32528898006051316,
      -0.5875601749053108,
      0.4266858819610553,
      1.069634485057463,
      0.28797839696419963,
      -0.49547313627664086,
      0.2479140131255958,
      -1.1299123676023226,
      0.7365090473487392,
      -1.894675003877838,
      -1.4125527463483836,
      1.2676512906370352,
      0.7171242718055559,
      0.06787413057760235,
      0.7144254183932613,
      -1.1347352430789979,
      0.47836149177019904,
      -0.48477784945730557,
      1.1172508016877194,
      0.269350816663565,
      1.1785431127801038,
      -0.18513263160023039,
      -0.4452982815557484,
      0.7554903043392761,
      0.7244116916897634,
      0.6404362567627733,
      -0.29717363211044134,
      0.6531375465561579,
      -0.5642051327592817,
      -0.08295989539191409,
      -0.7237067211902377,
      1.4728140037467965,
      -0.05486073214133641,
      -0.6059811271265537,
      0.3793083630681654,
      0.5293148959914047,
      -0.3729386444005361,
      1.3599158795208959,
      0.9299917688005958,
      1.2675464467059283,
      -0.25375482942540317,
      -0.27859407608357295,
      -0.3304494094483428,
      -0.6829967566442552,
      -1.2361404938706018,
      -0.6669588383320407,
      -0.3252098582598241,
      -0.3021754043440267,
      -1.0265033391668554,
      0.12891681037150457,
      1.1194589063483342,
      -1.4573136626068426,
      0.7247071612253925,
      -2.0148195107124853,
      -0.007672719517064911,
      0.07756293813035889,
      0.13921330341171076,
      0.7248048469090936,
      0.6413944918894221,
      0.38610864629887054,
      -0.9967839664490422,
      0.13911791026276402,
      -0.3263082267760696,
      -0.019651772538610047,
      -0.1726493832416887,
      1.2767896420927956,
      1.0382624449420588,
      0.6518089954746876,
      -0.25443201125504855,
      -0.5079917480054031,
      1.6456911149194098,
      1.3540096713976624,
      0.9012369448385285,
      -0.04438324779631728,
      0.054822273757467004,
      -0.321897253707335,
      -0.677923065411946,
      0.3097772443702872,
      -0.6447553378371833,
      -0.14104102266007,
      -0.8836323692976268,
      -0.32962123178155883,
      1.0401037907593724,
      -0.2641471575745449,
      -1.4681642259939223,
      -0.48590005785909895,
      -0.6932540516839968,
      1.3434130995076285,
      -0.3902294689733951
    ],
    [
      0.20538467008651018,
      -0.9014867225609761,
      0.7795909901147549,
      -1.530748312385322,
      0.9629829150983573,
      -0.9064113872861277,
      0.17512582552223904,
      0.7700433525965342,
      0.33258024396529356,
      0.9484594602763589,
      2.2820477560985006,
      -0.5292650231460597,
      0.3794781171780526,
      -1.0860595248813958,
      1.0889281776872297,
      0.22414069015129384,
      -0.4072574456537319,
      -0.8682535847791126,
      0.2638141214074584,
      1.1154843768448572,
      -1.7007316428481165,
      -0.036227733791986017,
      0.4247098769630716,
      -0.09280296522438254,
      1.3511537080409466,
      -1.3562666373289438,
      0.4774655742032244,
      -1.3867154136594482,
      3.914657206736663,
      1.491995546208652,
      0.6913769317646954,
      -0.14236269732405252,
      -0.6667777656980463,
      -0.0188360326257705,
      0.006483683566411049,
      -0.6010268057024294,
      0.22542810994245355,
      -0.21626598878368722,
      2.8022147860020774,
      -0.32786359257621156,
      0.642626295382054,
      0.9307820427303171,
      -0.5774115143220774,
      0.07616024365656558,
      0.8986532755554076,
      0.09108412968799563,
      -0.31751452889798665,
      -0.24289103220990568,
      -1.4903209704752791,
      -1.0883036737006957,
      -1.0839261607356756,
      -0.20356783137925963,
      -0.8704299791079833,
      1.5804258434831366,
      2.0499105733043215,
      -0.21926847460178298,
      0.36803641189443814,
      0.1963538876950106,
      -0.945537302677564,
      0.4742650178301244,
      0.31657214866912836,
      -0.5732306018826402,
      0.8047903013688802,
      -0.005836850850153756,
      -1.6698705803374074,
      -0.16228322848760893,
      0.420017928033145,
      0.16343477707257767,
      1.5202588915868867,
      -0.34073001620041027,
      -0.33113900353920905,
      -0.391090528659279,
      -0.484516758087287,
      -0.22368927805594047,
      -0.5913781840553073,
      0.5409166563355622,
      0.9436701035491918,
      -0.8216454981285467,
      -1.332065475411186,
      1.4010391171736163,
      0.9487447195111763,
      -1.6905093314788522,
      -0.8878129529051771,
      -0.398102352339394,
      -0.14102075685531826,
      -0.44897234121943497,
      -0.3921921813165042,
      -0.7877938720778987,
      0.3752610270519656,
      1.1971109442597128,
      -0.42882174743370177,
      -1.1714168459031304,
      1.1180012818500398,
      -0.003916963365009454,
      -0.1827015184291413,
      0.5833568502626865,
      1.0466675766084792,
      -0.8245186842233365,
      0.3545515320488263,
      -0.12589932200289367,
      -0.37962174276418337,
      1.4221845692818962,
      1.1628183986046898,
      -0.9190081743295131,
      1.8331994700906937,
      2.252650800933436,
      -0.47545611862505677,
      -0.7132170606099509,
      1.7921928120904758,
      0.4790747071045669,
      -1.8450202099218207,
      -1.6824685349997592,
      0.3039112158316899,
      0.8058122861845275,
      -0.5312750064992625,
      -0.5171648986666851,
      -0.13900576533607653,
      0.887071337538305,
      0.8718631046982092,
      -0.12736796193307665,
      -1.8900347560651503,
      0.888000867422096,
      -1.3148729822499907,
      1.8440817522487405,
      0.4846261041407401,
      1.5937661143272277,
      -1.207984231788406,
      2.4568451671657945
    ],
    [
      -0.9624932826295982,
      0.2761234916793113,
      0.6659982735343447,
      0.7800506182839924,
      0.29356055615385424,
      -1.6353305989550622,
      -1.0260025419343364,
      0.1547789915585663,
      1.5392720231508739,
      1.2750103952888454,
      1.4958997851943596,
      -0.6442070497200209,
      0.634387654769415,
      0.5774697308591566,
      0.6195439581759283,
      -0.25054524767322767,
      -0.8989784007800733,
      -0.4798874116697757,
      -0.29622659990286193,
      0.4699137096403803,
      1.3980093381991223,
      -0.15521900438877576,
      1.0237933703913995,
      0.5011404932433564,
      -0.5824123639813114,
      -1.309093154798893,
      0.0898831752872101,
      -1.399118562482809,
      1.6322818999537172,
      -0.5031636396913903,
      -1.5642472214842549,
      -1.3266783895416658,
      -0.6564993710732421,
      -1.445997417993244,
      1.5786307239327455,
      0.14124711999179418,
      0.7437389702033734,
      -2.324088133487505,
      1.0181990659195366,
      -0.14925872422221234,
      -0.6617213419001,
      0.024021874182754106,
      -0.9305308983077711,
      -0.33003490217765685,
      1.6967471441559523,
      -0.09648035957933769,
      -0.18049627574219734,
      -2.052134714608889,
      1.3503719052273186,
      0.20884616254958524,
      -0.8285889341417384,
      0.06917064463711331,
      -1.772588418544612,
      -0.34145168317872693,
      0.16436312668014266,
      0.13680753686845315,
      0.052027173959125886,
      1.910461128209559,
      -0.7229875245864896,
      -0.9135680446567487,
      -1.6914419862229586,
      1.1234567133406288,
      0.41023670320495237,
      -0.3019200386944204,
      -0.217441405382888,
      0.15931815801570584,
      -0.4151430023153011,
      -0.4501210608896261,
      0.5475273377520566,
      -0.4383217273848082,
      -1.0522090301175415,
      -0.38726196517883277,
      -1.3237146468704504,
      0.5349361420753485,
      -1.5809345460021398,
      -2.5493532556480916,
      1.0426938885768435,
      0.6213354193407398,
      -0.9048346031124146,
      0.32089398013538567,
      -0.717525719057709,
      0.6197171596504905,
      0.15847254047971365,
      0.039536787615813515,
      -0.9537895681970733,
      -1.71618549331156,
      0.626678743490736,
      -1.4538474218742488,
      -0.3177465475183434,
      2.6075722898684903,
      2.3625378483348665,
      0.48640120608881815,
      -1.345826726886332,
      -0.5934536353054611,
      -2.010609367012229,
      0.2981372736266464,
      0.1690378215391776,
      -0.8362579830684379,
      -0.6006530607866234,
      -0.12431514385142667,
      0.0016863513215712822,
      0.42218333731135965,
      0.8029935696818731,
      0.4708478843549864,
      0.6534218721279433,
      1.0924135834871747,
      -1.7691852217877795,
      2.0579025573050096,
      0.9622439504940187,
      -0.6578947177194798,
      -0.9605339225186137,
      -0.21900404814545715,
      -0.7880075382922557,
      -0.26618479736121187,
      2.8137151233265247,
      -1.2840646997709342,
      0.7309786915380218,
      0.30760258980889027,
      -0.3401526141627239,
      0.6647716334828713,
      -0.05820217963646569,
      -1.3083409008693827,
      -1.6479698266822724,
      1.629325002464974,
      -1.0249860903483154,
      1.2389667785236935,
      -0.6772982865351488,
      -0.8964646402858154
    ],
    [
      0.8844319628821052,
      0.14475889470773864,
      1.1396665210792605,
      -1.8864699209213343,
      -0.06290293497949398,
      -0.21307091821778654,
      -2.081861717076707,
      0.07581959848419434,
      -1.9373581389232248,
      -0.35030285784115267,
      2.8328381431904326,
      0.7775841252939658,
      -0.10197367327314304,
      -1.2140363784324142,
      1.3571690709515525,
      0.2214749984491217,
      0.32231017877835505,
      -0.7370659086961482,
      1.0199380804298035,
      0.45767167688390803,
      0.21915579614473227,
      0.18486917452637816,
      -0.6427659201693292,
      -1.4391165856487427,
      -0.5334585194144135,
      0.2363100288808744,
      1.1535720347539329,
      -1.7335019285268638,
      0.5802776537004066,
      0.39136018727255495,
      -1.7292253370602062,
      0.3671864195927706,
      0.06134916069904328,
      0.5185574231438606,
      0.7210452636857094,
      0.44864757845801695,
      0.47044646399685597,
      0.507104230108013,
      1.4743519849751567,
      0.823491024593748,
      0.40868635516564905,
      0.3374221176351844,
      -0.3195537675791513,
      0.8758395541327608,
      -0.39295419445840174,
      0.14827601084006425,
      0.012507398433349937,
      -0.09341520465427743,
      -1.7513614725135747,
      -0.22574361404123544,
      -0.44546056921045896,
      -0.3365813955578685,
      -0.6798692654959262,
      -0.19528147866123888,
      -0.5743484470178574,
      -0.9198157337342394,
      -0.5250571218822037,
      0.7448558126205359,
      -0.3809327334754692,
      0.4305972641860762,
      0.891332460423325,
      -0.19417507301623738,
      -0.3331229140155486,
      -1.0943863196500658,
      0.2682171054259781,
      1.4616012641264862,
      -1.3488575475610687,
      -0.898559103130441,
      1.6979297595923335,
      -1.1793755398292824,
      1.2341496313370515,
      0.887083548826908,
      0.34793100397139254,
      0.4827189816192565,
      -0.8639084235354176,
      0.30007217711055495,
      -0.6598552014067036,
      1.2918199301702238,
      -0.2604291643578814,
      0.08291187678910404,
      -0.4430396999983854,
      0.05465326393423391,
      -1.2614748351598983,
      0.7400047516458438,
      1.0073528621343029,
      1.6208113932422876,
      1.2588257195619195,
      -0.6516733203744214,
      -2.5389782859645984,
      0.3817514105354054,
      1.9420243109635473,
      -2.1041012193959725,
      -0.3798624646310945,
      0.8266728887783654,
      -0.40413227316370365,
      1.9271716810797288,
      -0.40497566407513114,
      -0.843002986220877,
      -1.9549746700040929,
      -0.25949670114960344,
      0.957553518962675,
      1.370765299453523,
      -0.11273165318175968,
      -0.05906698558732634,
      0.021189265425030416,
      -0.4273917921011909,
      -0.855710544093997,
      0.5848252660356225,
      0.8910660145361974,
      -0.5921938620342704,
      0.9872398654151472,
      -0.24177834879584834,
      0.7126528634831913,
      -0.2163969094339445,
      -2.482399448567713,
      1.2826491563124767,
      1.1133492624943009,
      1.2442122093430439,
      -1.3796870595732365,
      -0.6508916893615729,
      0.40208328117244463,
      -0.3105676729538635,
      -1.0953793755837444,
      1.3159375703351466,
      -0.8612928790874619,
      0.9449818881843479,
      -0.1254088636651869,
      0.6854393162360174
    ],
    [
      -0.24489351089987593,
      -1.1852695724516502,
      -1.841915289261532,
      -0.1430792237236419,
      0.43015186853114207,
      -1.1219661051958405,
      -0.9690775515574112,
      0.16534090660239575,
      1.1999951516484333,
      -0.6649286748851285,
      -1.106095038037077,
      0.3220284761236256,
      -0.7027591137473681,
      0.6433899882528581,
      0.07794956910149325,
      -0.20977708869551312,
      -0.3689764853854348,
      -0.9941298664544298,
      -2.6545462881719413,
      -0.8070424864851949,
      0.018250276789609193,
      -0.8411970445453844,
      0.9802490638778494,
      0.39954507412070284,
      -1.4878644134239178,
      -0.71372236889108,
      1.4339168610611919,
      0.8374867183478367,
      0.43164532368839603,
      -2.206274459361621,
      0.12127863118907162,
      1.3213176817667145,
      -0.7602846203297612,
      -1.7654777587983492,
      0.8346590886290508,
      -0.7103640947712571,
      0.16364534866062666,
      0.347992419232068,
      -2.8468713498767264,
      -0.01041521214874128,
      -1.1911593581304127,
      -0.5758378054940679,
      0.6245277061270242,
      0.8190031173283817,
      -0.1089964632931116,
      -0.205142838627362,
      -1.821181252223727,
      0.5798776318522622,
      -0.890177938372697,
      -0.07150766485071104,
      0.69864199154539,
      -2.4855979771052428,
      0.48817047247963613,
      0.18958510514850915,
      0.041429498016416336,
      0.7225450925235674,
      -0.2075432260146664,
      -0.7655482303068455,
      -0.0700657164656569,
      -0.9095663095302758,
      0.4219363070670856,
      -0.33268756522980053,
      0.4346585440724314,
      0.2467330709050711,
      0.1609242376931327,
      -0.006898826022021101,
      -0.18197517698968876,
      0.744100686632426,
      -0.09476298098587908,
      -1.0108783541518762,
      0.9898344805034616,
      1.260875136378723,
      -1.1362290421703087,
      1.636783142933709,
      1.8582067763862509,
      -0.45876729045904,
      1.0181496202125815,
      -2.9555395555275585,
      -0.38203361269373903,
      0.46921496949694014,
      0.07811085175132684,
      -0.6334346663873542,
      -0.1606424827948488,
      -0.022303091026582293,
      -0.27551313654707726,
      0.31297374601132677,
      -1.871841218203387,
      -1.0017384127099147,
      0.5519262109894326,
      -2.375639053236799,
      -0.23852787390095226,
      0.3268466369649527,
      0.445184589245537,
      1.9653461536015018,
      -0.38666112719955203,
      0.7355541501989147,
      -0.024961012341380085,
      -0.35403573859539006,
      1.4386877803809734,
      1.1660287771175042,
      -1.5292672106651337,
      -0.8160989766550801,
      0.03509748903089908,
      0.1571676729294674,
      2.097013633332427,
      -0.5318592386614248,
      0.40773821734321947,
      0.7504274529263477,
      -0.8910705382150441,
      0.7577847574503642,
      0.038014257459756284,
      -2.0348933264589504,
      -0.2727001164508342,
      -0.9772905429388831,
      0.5100039738791136,
      -1.4524444942070582,
      -0.554332988740085,
      -2.004307770067286,
      -0.9383017521578517,
      0.300527018607351,
      0.0042783324372826365,
      1.5986390344778507,
      1.771787678203014,
      1.8079452229779316,
      1.5883640504256322,
      -0.562247361990085,
      2.0933390897866286,
      -0.5589626089395097
    ],
    [
      1.3621292181002393,
      0.64940751354458,
      1.242766897293034,
      0.6866293041134529,
      0.524655621255481,
      0.7980008823403725,
      0.20728580427910298,
      0.04824882601038937,
      0.4794511672128928,
      -0.5013052523533716,
      0.833969547752635,
      -1.182014777779788,
      0.06510007217146051,
      2.105394848835538,
      -0.6677162542944133,
      -0.7254275814286018,
      0.34493932995907456,
      -1.2366170344219143,
      -0.37523171422786544,
      -0.619330253038239,
      0.8127237664138481,
      0.1685002763075264,
      1.291276175884553,
      -0.5324718633131577,
      1.3691606058007992,
      0.15736939380286755,
      1.1903119842229595,
      -0.8993495096113973,
      -0.9247530148587796,
      1.884560553419602,
      -0.11663356710819375,
      0.5398586083047158,
      1.0030208618627778,
      0.7003931375295095,
      1.3430956114147672,
      1.6872660758907332,
      -1.1742948380363398,
      -1.5865164164295122,
      -2.2722719995006218,
      -0.059426764124021085,
      0.4424511900632717,
      0.6899502277476826,
      -0.6255548037528434,
      -0.6950937224633363,
      0.21266820747525061,
      0.6222046669079905,
      -0.49441550407986423,
      0.4918575188909102,
      -0.11409753301923774,
      -0.09949138461811609,
      0.24259358816572446,
      -0.8253575996820701,
      1.1692289010829204,
      -0.19885267066347231,
      0.41233724148520545,
      0.327527188694062,
      -0.7479018021547815,
      0.7792329730049091,
      -2.0014874918217247,
      -0.7335753827144214,
      -0.21194229425413777,
      0.045273156069085295,
      0.709307697658684,
      0.42052531748058225,
      1.9803250147785085,
      -0.7968685673206531,
      0.45687884956080344,
      -1.5254061962216743,
      -0.019139964356711905,
      -0.49022589666529426,
      -0.12855592798355428,
      -0.2746277109179539,
      2.3377065950575378,
      1.2915224557443785,
      0.7878010195012356,
      0.5359431017368799,
      0.675080614141352,
      0.37918379680266207,
      0.0567699412261786,
      -0.7491603664083651,
      0.7473523139869912,
      -0.014003673566254232,
      0.2112392972658245,
      -0.9969214479275236,
      -1.4072107754489303,
      -1.7502643432639644,
      0.08711099595464734,
      -0.29317673790437815,
      -0.5848726253606927,
      -1.9259208008485622,
      0.38639575620549704,
      -1.2072035413070559,
      0.6745306334243583,
      0.03488372088279113,
      -0.25002868448138316,
      0.5971931834441774,
      -0.39447597022655456,
      0.7970830430583842,
      -2.0845809404570224,
      1.8450225854286997,
      -1.2105595018703583,
      1.26979327409974,
      0.17154082287473651,
      1.126745950097634,
      0.5774347742106435,
      -0.33153798167689374,
      1.3849105087626459,
      0.9590949447737451,
      -0.2572144305730581,
      0.04650475670278648,
      0.9678844806744662,
      0.5473379335908289,
      0.30758204899174646,
      -0.8485224363369691,
      -1.0056936516075075,
      0.41377851881179095,
      -1.6283720988039425,
      -1.4829897019707259,
      0.1230895403145889,
      0.6225465617163031,
      0.49565765695122654,
      0.9456617765114829,
      0.7372595873270613,
      0.07417625007676565,
      -0.18848592574693146,
      1.7986242955383138,
      0.4250030509660502,
      0.9988972301414162
    ],
    [
      0.23247377071278072,
      1.521878590765515,
      -1.4920069371244453,
      -0.3496394929938092,
      0.2665200297205705,
      1.5617338278704214,
      0.0906765418479537,
      0.669392840918187,
      -1.1216949561315661,
      0.5760805218337169,
      1.0397092756980006,
      -0.375359882738335,
      0.9476847185642745,
      -0.5212631885314223,
      -0.8664030711278001,
      -0.7968735656788918,
      0.8492555998170151,
      -0.2789311784939978,
      0.6891154183283587,
      1.888042335669519,
      0.30555622026924795,
      -0.9067044433826675,
      -1.1948321739914296,
      -0.6520858703337918,
      1.2769222658516914,
      2.0857511356814302,
      0.6034578843869499,
      0.14697710488047744,
      -0.6380331772512058,
      0.974154492060873,
      2.92752844870799,
      0.09928735974586016,
      0.7757997190886455,
      -1.5671252541756442,
      -1.1518932643593283,
      1.5526981083721914,
      -0.6944777209705388,
      -1.8774127036502215,
      -0.3504177556807614,
      -0.4650007091096207,
      -0.11487786037585422,
      0.17314082082738838,
      0.47641366908198307,
      0.010727055097574049,
      -0.7051313515064632,
      -0.33452057952507225,
      1.4489666726738615,
      -1.04141879955903,
      -0.0166677195925497,
      1.5107853719471005,
      0.35270854747098,
      1.7559130462665251,
      -1.9927031558629802,
      0.2315351875116088,
      -0.8052100927509139,
      -0.4257311567474124,
      1.158357334317212,
      0.48665098158886283,
      -0.10479380371077762,
      -0.5664650251213633,
      -0.8179667426798621,
      -0.17789473007063727,
      1.6485831036676544,
      -0.40220578405245516,
      -0.41001930531847336,
      -1.1306345741712789,
      -0.03519699361622396,
      -0.5663157510823863,
      -1.991581121943933,
      0.6666757479669597,
      -1.0697039957761239,
      0.1099500375933035,
      1.1330064553866155,
      0.39011822889327574,
      0.7000950423912029,
      0.8622042078490255,
      -1.0472827479405669,
      0.34842678250073955,
      0.28590631445052117,
      1.147656777740871,
      0.755043288299674,
      -0.2897476239672287,
      0.7208230019579954,
      -1.3259384180691853,
      0.9782369227184518,
      -0.2815433098043987,
      0.2433926216499168,
      -1.838056287629634,
      1.080335191159927,
      -1.053865953625146,
      1.28418935740081,
      -1.3259942186052875,
      0.19315453858244164,
      0.27256262931623865,
      0.05036938402590144,
      1.3459469473896413,
      -0.11078126288220821,
      -0.9897941056349358,
      1.0546465431674852,
      -0.24679460807316655,
      0.004030504199413467,
      0.7386837232293779,
      -0.5430786773799051,
      -0.21518513279714743,
      -0.6433067409126134,
      -0.31806754977213747,
      -0.47767401752221894,
      -0.07861916756401388,
      0.4210334901613918,
      -0.3985062693761372,
      -0.43275353101110675,
      0.2399458378113453,
      -1.210642001596775,
      -1.2567339662538963,
      0.5364113875131286,
      0.19531681763531505,
      -1.1154966965950304,
      -1.023443144130859,
      -0.43299742234633987,
      -0.7747169997669316,
      -0.07483917967982129,
      1.8740543596332775,
      0.5525863012692734,
      -0.7750616727908649,
      0.6486863389972654,
      -0.2571170154284829,
      1.1313999711729368,
      -0.8570662740556007
    ],
    [
      -1.3829596442228962,
      0.9255632234452907,
      -0.46157244055910557,
      -1.5733007177924425,
      -0.006289042619428735,
      0.40066501220429973,
      1.0957476118417555,
      0.5958725516887123,
      -1.9437319482895707,
      0.6847527160801739,
      -0.020574987755273406,
      0.7003869151794943,
      0.44014099300574805,
      0.00682188688762375,
      2.152243044355772,
      -0.79835773115519,
      0.004175757437120231,
      0.9523531322163795,
      -0.10257763888638238,
      -1.9598910345092453,
      1.5707602159762102,
      -1.410024133966203,
      -0.8918878969066872,
      1.3636239871282785,
      0.05677564497885028,
      -0.988191133069884,
      -1.228285486560146,
      -0.5873047873709808,
      -0.3698102099397396,
      1.0537756978692938,
      0.536729855853863,
      0.6197923325802422,
      0.41785920095134343,
      0.19943708677957123,
      0.16258689844551227,
      0.8458871497264189,
      -0.18662584206173602,
      0.19469026261236405,
      -0.8044532354350444,
      -1.069349016276183,
      -0.07000627935450805,
      -0.019126542405925817,
      0.2635720888411546,
      -2.258762412287011,
      1.5558428652322418,
      3.0234150643206257,
      -0.19468417187683734,
      0.6963770536116123,
      -0.3159593732707312,
      -0.503660001169627,
      -1.7085582829136572,
      -0.6528273661298157,
      -0.7264117713419851,
      -0.5341503547838393,
      -0.16858834701081207,
      1.0392893594208326,
      -0.0841425029622664,
      -1.8326715642068656,
      -1.6530362632612787,
      0.20762334322164083,
      1.0134161545031195,
      -0.07325396599812298,
      1.260095722725388,
      2.37802747209085,
      2.01069736334241,
      -0.8279668428595394,
      -0.36281245920797944,
      0.5914430929022731,
      0.3929146435946404,
      -0.6867552267882978,
      1.9283787647821165,
      1.6989971316794519,
      -0.640189939524019,
      -0.7037406538793868,
      1.4858360493389637,
      -0.23474279195088313,
      0.5092842259395923,
      0.2883467604703744,
      -0.495105545709162,
      0.8409881419477936,
      -1.8568164064610406,
      -1.083408320415338,
      2.3389475703732945,
      1.5139565568082802,
      0.640309212820957,
      0.034786338257562006,
      1.4012986034899757,
      0.8396279254574314,
      -0.1558189950681505,
      1.0231590146591012,
      -1.4134402170104092,
      -0.17006114517295493,
      -0.23775356301645378,
      0.2571010916920612,
      -0.3154236555208528,
      0.29917298831028577,
      0.011042240901118557,
      -0.4890168622360078,
      0.15788674491501228,
      -1.256939672496038,
      2.1658262426525634,
      -1.901984842728866,
      -0.5493235055022513,
      0.5162428278011001,
      -0.5559778405450156,
      0.46095518252771145,
      -1.9449809089657153,
      -0.07134073019824112,
      0.2866008184900814,
      -1.3348086135383566,
      -0.3365216850490885,
      0.03575618268255077,
      1.2480712797420057,
      0.5492976075437229,
      -1.188044403460464,
      1.1956860396917106,
      1.7165754389064936,
      -0.05714330108140702,
      -1.6961697546633492,
      -0.7822163244011939,
      0.49077294017461204,
      -0.2553531534564387,
      0.054821961318690285,
      0.9311013098578186,
      -0.9146445463227795,
      0.009358243484429365,
      -0.7740131041367871,
      -1.0324822745687978
    ],
    [
      0.06854780590903599,
      -1.609996752299371,
      1.0121296161686202,
      -0.07947374949231012,
      1.4105632106929709,
      -0.393692208832185,
      0.37329281636094946,
      1.093628531206254,
      0.8879455893616104,
      -0.010253846793158118,
      2.401271705844046,
      -0.48341928241709764,
      0.12801928108775018,
      -0.2894046972226111,
      0.7558245995894378,
      0.17674379972346088,
      0.660717286067707,
      -0.02577723762942915,
      1.4549823536756301,
      -0.019858414831474467,
      0.7895021188875665,
      -1.2862012154797033,
      0.9939207730583386,
      0.6839339818977319,
      0.5688213697460668,
      1.4512570048482138,
      0.6559192382837513,
      -0.7244048588200516,
      -0.19978971416012656,
      0.6473646252051508,
      0.23624231037078283,
      0.9733804333748358,
      -0.9613190203437301,
      0.6040186891003967,
      1.101877678291221,
      1.2506829571379712,
      -0.7206681815576056,
      0.9127349802995957,
      -0.2904911021262179,
      1.4271078545124551,
      0.4065949662931768,
      1.7206167711990699,
      0.28622650155502793,
      0.06796530137961747,
      -0.32697969398070087,
      -1.6098690044466397,
      -0.38434987654092706,
      0.8102354641280685,
      0.1628614924701561,
      0.5618533451944809,
      1.6341707552725013,
      -0.38888327309544457,
      -0.14867196789941026,
      -0.7223827511269508,
      0.22446801793142404,
      0.15338191059410572,
      -0.4369210679017938,
      1.7277747213572192,
      -1.7462497346672472,
      -0.16712640875244864,
      -1.1798371442566793,
      0.539202710343218,
      0.7220949742483184,
      1.7773264651217688,
      -1.3699918734418806,
      2.256905685908433,
      1.7545856606837993,
      -0.6633530752678223,
      -1.2064632865912543,
      -0.3118659756963557,
      0.7796895300390998,
      1.061125785793713,
      0.05196696351596193,
      0.15503177909324312,
      0.21045489455424338,
      0.5062502161887532,
      0.33161638542898225,
      0.20109619180011024,
      -0.6195706882683865,
      0.03820004663672336,
      0.07424971970822358,
      -0.6414934639009484,
      -0.184934899311409,
      0.9922917459614538,
      1.5062579841126449,
      0.44281929849148727,
      0.6337539598070304,
      -0.5292761081676218,
      0.48166572431456267,
      0.6151743736537746,
      0.41851922733292923,
      -2.0027720322576243,
      -1.0660537115607607,
      -0.1355304617513388,
      -2.3412558309803404,
      -0.03638696784063124,
      1.928823156978022,
      1.180899205969096,
      -1.4699199381818433,
      1.494200610989781,
      0.33465850239948064,
      1.3587787604047994,
      -0.83932360073505,
      0.5057877794627746,
      0.7551044972584356,
      1.6390867283904167,
      0.6369568347144643,
      -0.45223552390725263,
      -0.385516427485626,
      0.4665630577143372,
      0.5520218794737749,
      -0.05262307817346002,
      -0.4173349967469787,
      -1.633751219897142,
      0.32133693089375587,
      -0.0477162305868873,
      0.2988320335800148,
      -0.31071813876941506,
      -1.0004695548249725,
      0.4059968999539631,
      0.5241056107018369,
      -1.2704268648153245,
      -0.9466903958343006,
      0.3502785569572411,
      -1.0710744790424338,
      0.267601105802161,
      -1.3529641653182205,
      1.7628253835818404
    ],
    [
      0.5890069944610656,
      0.08691435705337569,
      1.0283163178491708,
      1.7852131815672783,
      1.9319336281207242,
      1.9232604978765548,
      1.0243557136544463,
      -0.3552835929368047,
      1.0360278759562649,
      -0.17026517892994522,
      0.5098689955944191,
      -0.31640455608390383,
      -0.9041009898645805,
      0.8849425614485613,
      1.2385322720754572,
      -0.547908124365198,
      0.07724085253207313,
      0.6329389381772195,
      -1.731481480246339,
      0.5581371373046071,
      -0.7378881222737089,
      3.4320651398702013,
      0.277078127052283,
      1.6304966604474473,
      -0.5443644112644732,
      -0.9348808478261909,
      -0.8566033262234054,
      0.005910223501319439,
      -0.8889926888444881,
      0.4882638615256576,
      -0.6260438893723488,
      0.17599047892013328,
      -0.1818201633997863,
      0.8822970496226679,
      0.061544566660503786,
      -0.3197820523319076,
      0.03756370880830967,
      0.6869229173103141,
      -1.1569245618831356,
      1.436502781002754,
      -0.8804339787912506,
      -0.2864235536984356,
      0.4483011699723777,
      -0.5423019147602629,
      -0.8733738021593965,
      0.7615273733205389,
      1.7397573325750106,
      0.621041599767542,
      0.6098442320573187,
      0.06045828616961439,
      -0.24531488649223784,
      -0.29654902435547775,
      0.6679824891589832,
      -0.38938217510210477,
      -0.25483980322818633,
      0.06305762832521365,
      -0.5363498956830027,
      -0.30233592430713635,
      -1.136845079348936,
      -2.459513389246481,
      -0.18036557752191257,
      -0.38549321688488947,
      0.9533167591071998,
      -1.253089002409496,
      0.2478084739663924,
      0.7315853412489962,
      0.3472010531397011,
      0.09217233091499655,
      -0.8888766998215558,
      0.20765762092787818,
      0.1824484382818059,
      -1.866542116347298,
      -0.6158913170755621,
      -0.6172941388761749,
      0.7913352902858388,
      -0.9357193241352542,
      0.6195978484582729,
      0.309523396155376,
      0.558488039149587,
      1.3045591896273683,
      -0.6685400478870747,
      0.5640933719425062,
      -0.8705996744296263,
      1.5002209881703275,
      -1.2978357244263106,
      -0.811568010416969,
      0.26341747802013327,
      -0.16255131529650715,
      1.5163526434745753,
      0.32908659064758305,
      0.9348620248702834,
      -0.1636201576609197,
      -0.601656172335166,
      -1.3867541088430977,
      0.469396892275141,
      0.09226017332699109,
      -1.4757852336235269,
      -0.8663650512026407,
      0.17008623761739292,
      0.8126244329965326,
      1.5558079965584064,
      0.1566322489694087,
      -1.2128334704796517,
      -1.776387332029532,
      -1.7145733534568988,
      2.2989340627605226,
      1.0656903518958138,
      0.8242895700019329,
      -1.9653057433362575,
      -0.11624964939953578,
      1.0474028255731693,
      -1.6626254233618303,
      0.4302705694275019,
      -0.4268285434218561,
      -0.19923345002445214,
      0.3588619482171768,
      -0.7393999504013977,
      2.389502986684029,
      -0.3616322706773032,
      -0.04989921807690406,
      0.6729259478854288,
      -0.6757118977189697,
      0.6310089613901864,
      0.014497762521196379,
      -0.6901222634615445,
      -0.052096917257204785,
      1.2903022509342403,
      -0.2731453677789103
    ],
    [
      -0.020763895710535562,
      -1.1613308381492193,
      -0.3406942241457169,
      0.35195515236188146,
      -1.858120283698723,
      1.3911134113602253,
      -0.1663711874588435,
      -1.8723454378685846,
      0.049119591135739264,
      0.9116014609973467,
      1.284957806463349,
      -1.2394835823350858,
      -1.2603510668379339,
      -2.3396646315716936,
      0.894017276836033,
      1.6080038785397284,
      -1.8758893744423415,
      -0.5721824838202935,
      0.87857354596471,
      -0.6095618078240925,
      -1.4565706310789015,
      0.5617603462391219,
      0.3294559247385577,
      -0.8110168887049506,
      -1.5556130211451193,
      -0.9693728808364879,
      -0.08826016347413972,
      -1.1854879457182455,
      0.24178123902895995,
      0.16304849717634678,
      0.7312903677283472,
      -0.8048017619455677,
      0.2745913783012911,
      0.30602812835456067,
      0.3764930675984126,
      0.041999677980508736,
      -0.45819226340176195,
      0.3089877044353942,
      0.4652867569086916,
      -0.33348014198146725,
      0.25998928424093926,
      0.3288093622750684,
      -0.6365199311053293,
      -1.2478213967430942,
      2.2360045930386447,
      -0.18417219341221835,
      -1.0591884121887678,
      -0.5610344132243117,
      1.3401178306103587,
      -0.5878175304294639,
      -0.5755768017663988,
      0.9342172117988164,
      -0.30871808081969015,
      0.5364189477233998,
      0.057407837174977154,
      -0.25406211407835894,
      -0.14237109766066625,
      -1.935941464006032,
      0.1591413340595478,
      -1.2295851831527163,
      -0.6850893521253231,
      -0.07559766540438487,
      0.9619063078140344,
      -0.7944781728082312,
      1.1819211418032847,
      -0.06255258950360494,
      -0.7621639260106416,
      -0.5632613457358481,
      -1.5898262802234935,
      -0.5746926540564297,
      2.3910189666133173,
      -1.1470691267029653,
      1.00680271905984,
      0.12064046603531936,
      0.13355265409672387,
      -1.950267383697076,
      -2.1925301530855195,
      1.8987937251286071,
      0.7749541725519616,
      1.4003029583307907,
      -1.7365223716575526,
      -0.41616612311270695,
      -2.1914087134677445,
      0.6604911593766808,
      0.5668270603136527,
      -0.7568215959089039,
      0.6990407630806372,
      -1.1740391119127669,
      0.6523156282911783,
      1.680959062812067,
      -0.1698636989706314,
      0.5880922140852605,
      0.6580234017426723,
      2.05465849159724,
      0.5277400579944821,
      0.3852845607262363,
      0.6717282874731566,
      0.3526146383922866,
      -2.691094173303028,
      -0.015817730905347698,
      -0.10737862597952073,
      2.209130620996027,
      -0.10785774698484736,
      -0.7799553582414589,
      -0.15195582074510688,
      3.0845425975182845,
      0.020481279751321715,
      -0.2013369896898795,
      0.5943078764280952,
      -0.036692859192848835,
      0.5261847215952823,
      -1.1361814367272762,
      -0.9471621680745782,
      -1.274601188140602,
      -1.0424272293316674,
      0.09138248994025971,
      0.22043036363846433,
      1.5087064053068213,
      1.849000418280046,
      -1.0728756239380373,
      0.36609423029233784,
      -0.656348001408751,
      0.43294489625868865,
      0.5284502394774947,
      -0.7233390401423346,
      -0.015213229864885705,
      -2.0644278266508653,
      0.1740830224292706
    ],
    [
      0.41721548772768935,
      -0.6619850969371656,
      -0.6574528216395236,
      1.6253043362097632,
      0.3679996061834378,
      -1.4290419240396335,
      0.9651951874109502,
      0.5225305007401726,
      -0.2897016465097525,
      -0.34939052397673626,
      -1.6614581791292091,
      -1.3260598180520118,
      -0.9090721236078324,
      1.008764544269913,
      -0.36240056674454135,
      0.14774404503385125,
      0.704634155054537,
      -0.5672745966052376,
      0.3268325929188102,
      -1.173417425265767,
      -0.7576697953993395,
      -0.0743315321169544,
      0.24846611772430818,
      0.7018176817911189,
      -2.129958317299267,
      -0.5385929368244582,
      0.2747726940356823,
      0.1880459815401719,
